842 100
sent_0 -0.003054 0.058234 -0.065081 0.025274 -0.131269 -0.071470 -0.006016 0.003563 0.024136 -0.078008 0.089035 -0.043283 -0.123582 0.045847 0.120618 -0.152239 0.092217 -0.053330 -0.062357 0.046117 0.081009 0.154558 0.045549 0.004129 0.198608 0.052764 -0.022360 -0.079343 0.001346 -0.105548 -0.216647 -0.013225 0.034195 -0.092924 0.026681 0.062369 0.006342 -0.035536 -0.096470 0.195303 0.083912 -0.112986 0.053828 -0.007655 -0.076544 0.058759 0.055369 0.019211 0.123886 -0.016664 -0.037786 -0.047135 0.001355 -0.181096 -0.111170 -0.071054 0.038329 -0.063608 -0.017390 0.005061 0.036845 0.039541 0.080713 0.002274 -0.049770 -0.031723 -0.057515 0.137925 0.152632 -0.020588 -0.046406 0.001377 -0.077494 0.089021 0.040574 0.153034 -0.033000 0.066307 -0.070210 0.039914 0.118301 0.070881 0.027932 0.065444 -0.025403 -0.113654 0.073826 -0.096569 0.011534 0.010776 0.031262 0.061654 0.038527 -0.047377 0.051482 0.118838 0.004373 0.130972 -0.108552 -0.114755
sent_1 0.049554 0.093251 -0.092598 0.016695 0.077926 -0.100221 0.118014 -0.021276 -0.084615 0.094178 0.143720 -0.082651 0.007750 -0.068892 0.139828 -0.084603 0.112087 -0.009154 0.013564 0.057189 0.048630 0.129923 -0.016686 -0.014100 0.098213 0.010468 0.019407 -0.116567 0.105422 -0.037720 -0.161195 0.016604 0.072084 -0.095120 0.000793 -0.031408 0.030959 -0.129138 -0.070192 0.228991 -0.039269 -0.034184 0.024312 -0.046729 -0.106802 0.031815 0.009859 -0.017935 0.165793 -0.134967 -0.069913 -0.032232 -0.022737 -0.142770 -0.138138 -0.008157 -0.133246 -0.081836 0.065624 0.047701 0.028348 -0.045184 -0.002297 0.009998 -0.125760 0.100656 0.079965 -0.012126 0.095799 -0.097900 -0.072091 0.014737 0.116702 0.001382 0.111854 0.264307 -0.086631 0.045193 -0.051084 0.051520 0.012168 0.015100 0.018726 0.048315 -0.095662 -0.057868 0.080898 -0.155012 0.124427 0.069976 0.036432 0.023491 0.134164 -0.055986 0.046970 0.046618 -0.006194 0.029561 -0.041444 -0.054075
sent_2 0.109164 0.221386 -0.320250 -0.241868 -0.194536 -0.091417 0.296023 0.165663 -0.062585 -0.164035 0.249457 -0.094439 -0.088912 0.079466 0.311059 -0.048717 0.095770 -0.033356 -0.119234 -0.051907 0.083191 0.051589 -0.061856 0.017274 0.242577 0.120525 0.120449 -0.122290 0.030798 -0.068464 -0.360961 0.107586 0.098859 -0.214500 0.224297 0.082269 0.149414 -0.142680 -0.309998 0.315361 0.100799 0.126251 -0.119970 -0.045845 -0.337584 0.075817 0.065180 -0.044433 0.385325 -0.007337 -0.094772 -0.262579 -0.045260 -0.437745 -0.024399 -0.110805 -0.102645 -0.081397 -0.029135 -0.011454 0.053908 0.024557 -0.037597 0.152475 -0.156346 -0.033599 -0.049355 0.076155 0.166275 -0.053139 -0.020454 -0.094059 -0.138105 0.089778 0.080370 0.356753 -0.005777 0.207413 -0.056008 0.069732 -0.048048 0.249718 0.078367 -0.039177 -0.093825 -0.015359 0.223201 -0.101313 -0.054516 -0.338854 0.138135 0.096041 0.259450 0.064082 0.082158 -0.059689 0.108539 0.276211 -0.018342 -0.297565
sent_3 -0.068457 -0.096628 -0.239354 -0.171698 -0.095455 -0.030684 0.118202 0.003478 -0.112678 -0.029467 0.011187 0.041025 -0.159211 -0.027345 0.118402 -0.054088 -0.057163 0.089554 -0.030622 -0.015443 0.235182 -0.280925 -0.073565 0.059354 0.225589 0.358568 -0.069184 -0.076910 0.034442 -0.062353 -0.186766 0.134152 -0.213923 0.060921 0.003097 0.358912 0.066939 0.044095 0.013467 0.036809 -0.018150 0.054769 0.036783 -0.149316 -0.099468 0.226183 -0.135182 0.083636 0.190330 -0.182257 0.067705 -0.129177 -0.077011 -0.209441 0.038737 -0.100430 0.080055 -0.032627 0.000477 0.030790 -0.040142 0.142345 0.047385 0.068043 -0.055291 0.159622 -0.163581 -0.019600 -0.121972 -0.010233 0.000048 -0.016348 -0.013068 0.006772 0.146024 0.254857 0.046427 -0.208597 0.115058 -0.061888 -0.113417 -0.091040 0.024805 -0.021057 -0.029075 0.040943 0.033997 -0.043895 -0.165738 -0.096146 0.137317 -0.036051 0.245439 -0.084582 0.059444 -0.089655 0.115775 0.264925 0.031732 0.106689
sent_4 0.032374 0.146531 -0.075800 0.022753 -0.021514 -0.139975 0.098442 -0.021107 -0.038496 0.056784 0.132872 -0.076420 0.003440 -0.043368 0.119930 -0.055947 0.120206 -0.001681 0.008390 0.006955 0.094526 0.040950 0.010028 0.016398 0.076733 0.002693 0.013321 -0.078354 0.091244 -0.016332 -0.152450 0.019628 0.020232 -0.127456 0.050812 -0.014663 0.039365 -0.079704 -0.106113 0.165455 -0.011995 0.000472 0.025334 -0.102954 -0.143059 0.030960 -0.011144 -0.032100 0.157753 -0.085581 -0.049310 -0.019894 -0.017644 -0.148078 -0.071213 -0.063652 -0.160014 -0.056433 0.046010 0.030250 0.029758 -0.034209 0.026089 0.034506 -0.077534 0.063359 -0.001856 -0.019702 0.089199 -0.072783 -0.084712 0.018417 0.060443 0.053412 0.097576 0.231596 -0.031074 0.010583 -0.054529 0.013601 -0.012169 0.067503 -0.039450 0.012854 -0.100590 -0.066386 0.092877 -0.113958 0.093053 0.008078 0.089591 0.035125 0.146227 -0.075610 0.066184 0.067979 0.062138 0.095877 -0.024400 -0.105689
sent_5 -0.031929 0.110333 0.005354 0.155105 -0.202645 0.074337 -0.208300 0.113147 -0.043080 0.130799 -0.078594 -0.047073 -0.089815 -0.010092 0.172340 -0.105907 0.062778 -0.099381 0.036667 0.127835 0.024727 -0.014636 0.098054 -0.007125 0.063227 0.020743 -0.122265 0.038483 0.007703 -0.082866 -0.062151 0.050876 -0.002503 0.023210 0.064008 0.115942 0.055754 0.041774 -0.047205 0.088040 0.025412 -0.136691 0.020713 -0.039306 -0.087444 -0.018951 -0.061085 -0.005292 0.037122 0.030184 -0.021240 0.035313 -0.057621 -0.005430 -0.033277 -0.057403 -0.034855 0.004542 0.008043 -0.109029 -0.007456 0.134132 0.094337 0.037845 0.086898 0.082565 -0.185163 0.104627 0.149011 0.119816 -0.097916 0.002999 0.015661 -0.015092 0.048356 0.032262 -0.060488 0.027520 0.073991 -0.094721 0.086900 0.002039 -0.131920 0.077056 -0.089993 -0.007371 -0.071277 0.032307 0.105966 -0.003352 0.122267 -0.029869 0.014458 -0.154382 0.031414 0.001792 0.048924 -0.044878 -0.125197 -0.134680
sent_6 -0.172123 0.025435 0.041377 -0.162919 -0.037451 0.051395 -0.067574 0.097011 -0.060817 -0.029107 -0.015215 -0.001784 0.039062 0.082952 0.074381 -0.057663 0.066404 0.035535 -0.123306 0.093240 0.028061 -0.057460 -0.014517 -0.073860 0.060026 0.091076 -0.016028 0.044444 0.073135 -0.055409 -0.047865 0.053001 0.064174 0.031205 -0.038395 0.111479 0.091366 0.022294 0.028117 -0.059580 -0.040272 -0.082903 0.016653 -0.072388 -0.031897 -0.029464 -0.033888 -0.024822 0.096575 0.045058 0.006194 -0.145957 0.045717 -0.097553 -0.068987 0.027322 -0.127858 -0.051071 -0.100706 0.084438 -0.025999 0.057555 -0.018779 0.235852 0.057699 -0.002063 -0.033292 -0.072837 -0.089788 0.038827 -0.050270 -0.061872 -0.077526 -0.000623 0.018025 0.031036 0.086076 -0.002348 0.063277 -0.006161 0.146288 -0.042497 0.083268 0.152893 -0.051746 0.054960 -0.023256 -0.031445 -0.079665 0.054721 0.055089 -0.003837 0.082837 -0.070950 0.125560 0.004484 0.093917 -0.031528 0.058687 -0.031739
sent_7 0.031353 0.105383 0.045109 0.035944 0.005370 -0.061921 0.042622 -0.051883 -0.045306 0.046324 0.099109 -0.071917 -0.014412 -0.022029 0.077207 -0.075494 0.026561 -0.015562 -0.019737 0.085252 0.029029 0.065505 -0.016635 -0.039002 0.032045 -0.004906 -0.019589 -0.020814 0.067631 -0.007159 -0.101518 0.024608 0.037512 -0.092859 -0.012239 0.009138 0.017482 -0.061917 -0.058240 0.143949 -0.027294 -0.026838 0.068100 -0.033922 -0.068928 0.046737 0.044090 -0.011801 0.111042 -0.089180 -0.060628 -0.056360 0.010985 -0.030099 -0.043584 -0.043776 -0.042429 -0.045479 0.005185 0.034650 -0.011864 -0.028784 0.018420 -0.008365 -0.023146 0.052800 0.003267 0.016902 0.054707 -0.048422 -0.039727 -0.008642 0.068474 -0.010056 0.017438 0.091509 -0.048835 0.073396 -0.046337 0.050170 0.013181 -0.023412 -0.030632 0.031126 -0.055574 -0.042976 0.053844 -0.096464 0.065353 0.012484 0.046053 -0.003943 0.042216 -0.057871 0.039789 0.057683 -0.000052 -0.026165 -0.056342 -0.076963
sent_8 -0.181399 -0.050106 0.007627 -0.126231 -0.191348 -0.011173 -0.156896 0.180034 0.037731 -0.094207 -0.082504 -0.068509 -0.127632 -0.025716 0.097973 -0.151219 0.024265 -0.025345 -0.138266 0.093050 0.030646 -0.059115 -0.027181 -0.070964 0.171625 0.192233 -0.056716 -0.052901 0.032608 -0.103226 -0.113800 0.085214 -0.019901 -0.077786 0.069940 0.037749 0.135848 0.151087 -0.078133 0.040259 0.177474 -0.118250 0.103181 -0.057504 -0.055285 0.014762 0.027946 0.005436 0.357233 0.040953 0.103760 -0.154457 -0.097613 -0.249665 -0.061282 -0.160568 -0.066545 0.009663 -0.074573 0.090217 0.010844 0.173414 -0.002720 0.168789 0.027940 -0.080555 -0.079610 0.039071 0.001960 0.165897 0.056975 -0.020842 -0.168437 0.128666 -0.078552 0.099859 -0.038102 -0.145122 0.058564 -0.039446 0.151280 0.018063 0.063050 0.050883 -0.025650 -0.007440 0.073345 -0.009403 -0.057086 -0.054535 0.106872 -0.021286 0.116247 -0.098559 0.134587 0.140106 0.026698 0.109102 0.045754 -0.053830
sent_9 -0.000365 0.041635 0.081331 0.020196 -0.039586 -0.062432 0.002673 -0.045172 -0.025598 0.034072 0.065392 -0.052411 -0.073182 -0.004692 0.072598 -0.070807 0.002433 -0.022760 -0.044746 0.076064 0.000932 0.108327 0.000207 -0.010953 0.053030 0.039343 -0.036190 0.030990 0.006189 -0.042533 -0.084681 0.042606 -0.011640 -0.018950 -0.038923 0.020910 -0.012593 -0.046977 -0.030022 0.146892 -0.019758 -0.068259 0.069905 0.012617 0.002697 0.047299 0.025310 0.006910 0.068391 -0.068070 -0.019491 -0.056521 -0.002334 -0.034609 -0.019341 -0.052557 -0.004836 -0.056652 -0.013887 0.017762 -0.008220 -0.010864 0.045901 0.005256 -0.001104 0.033489 -0.002133 0.057211 0.063257 -0.018671 -0.026468 0.009639 -0.032794 -0.002615 -0.005419 0.029112 -0.032327 0.048380 -0.040988 0.046724 0.021118 -0.013023 0.032426 0.025168 -0.040495 -0.032943 0.074750 -0.109373 0.054491 0.010651 0.006947 -0.019579 0.008887 -0.053903 0.060805 0.088261 -0.013248 -0.018649 -0.054056 -0.051005
sent_10 0.013340 0.017860 -0.136304 -0.082970 -0.269619 0.002837 0.011620 0.145188 -0.009500 -0.130380 0.128233 -0.114575 -0.082091 0.126033 0.134226 -0.127037 0.064199 -0.050104 -0.100762 -0.008769 0.112485 0.086408 -0.006992 -0.012533 0.168405 -0.046549 0.034376 -0.030562 0.007992 -0.102350 -0.189989 0.031497 0.076838 -0.070553 0.059289 0.051314 0.073568 -0.028754 -0.145541 0.197118 0.141082 -0.054508 -0.051631 0.002187 -0.130265 -0.005632 0.118787 -0.002366 0.189136 -0.032149 -0.018434 -0.123450 0.005023 -0.243296 -0.059444 -0.055502 0.067839 -0.073203 -0.072275 -0.036065 -0.014409 -0.014808 0.030753 0.093959 -0.057442 -0.104513 -0.056888 0.171263 0.128887 0.064318 -0.004466 -0.050484 -0.156149 0.064317 0.044180 0.101463 -0.009360 0.108781 -0.094991 0.031535 0.030266 0.081925 -0.025500 0.034441 -0.017803 -0.044305 0.150842 -0.080399 -0.052436 -0.172027 0.020820 0.013249 0.026188 -0.001004 0.140574 0.072496 0.044658 0.173675 -0.115764 -0.116645
sent_11 -0.048918 0.017744 -0.210154 -0.085723 0.030944 -0.035300 -0.011169 0.000752 0.038828 -0.068456 0.056362 -0.035401 -0.165191 0.101854 0.083095 -0.097747 0.000721 0.022301 0.029884 -0.018091 0.089981 -0.104265 0.010839 0.107088 0.186009 0.162020 -0.012838 -0.019910 0.133585 0.059911 -0.087568 0.011092 -0.113377 -0.005067 0.100430 -0.032004 0.071525 0.030499 -0.061110 0.078276 0.095349 -0.039745 0.046877 -0.131383 -0.135150 0.090859 -0.072508 -0.016056 0.206177 -0.090720 0.108403 -0.068810 -0.022184 -0.115053 -0.003587 -0.165355 -0.153854 0.009865 -0.085231 -0.013481 0.040553 0.001802 0.098444 0.088200 0.050452 0.066002 -0.145760 0.073765 -0.045056 0.031835 -0.061083 -0.033646 -0.032906 0.027129 0.046408 0.214900 -0.040920 -0.083065 0.025945 0.016101 0.055278 -0.026594 -0.081102 0.023739 -0.016637 0.045775 -0.011975 -0.060464 -0.050173 -0.005094 0.145872 -0.069886 0.100855 -0.124963 0.036665 -0.004652 0.129158 0.040159 0.020491 -0.029256
sent_12 0.031642 0.107317 0.036941 0.032831 -0.001092 -0.063885 0.035067 -0.041351 -0.035607 0.041606 0.097922 -0.071647 -0.009803 -0.017502 0.061210 -0.069057 0.029002 -0.010201 -0.015970 0.078725 0.029457 0.057128 -0.011007 -0.026485 0.032264 -0.003803 -0.019123 -0.019777 0.065177 -0.011086 -0.103439 0.022414 0.033159 -0.082641 -0.007548 0.003526 0.025327 -0.047952 -0.058356 0.122405 -0.029560 -0.022858 0.054940 -0.028637 -0.057008 0.037389 0.031610 -0.016547 0.101059 -0.076655 -0.057553 -0.044275 0.006677 -0.033887 -0.044243 -0.041445 -0.054036 -0.043432 0.003992 0.027434 -0.008394 -0.026790 0.025809 0.006229 -0.020812 0.046932 -0.001716 0.009672 0.058192 -0.037211 -0.049053 -0.002924 0.056265 0.002526 0.016819 0.097342 -0.044282 0.071525 -0.044618 0.044498 0.021089 -0.010534 -0.026754 0.012876 -0.055523 -0.044582 0.045147 -0.092330 0.066241 0.011112 0.050640 0.010494 0.042686 -0.048788 0.035996 0.053864 0.005572 -0.015988 -0.043519 -0.081543
sent_13 0.037595 0.218792 -0.191883 -0.033073 -0.099341 -0.083483 0.092209 0.128223 -0.013345 -0.100941 0.078920 -0.097994 0.011337 -0.096136 0.159367 -0.125023 0.129463 -0.115612 0.052559 -0.008371 -0.151628 -0.044413 0.029269 0.083850 0.075138 0.100105 0.030103 -0.088700 -0.095686 0.022441 -0.126944 0.152707 0.066139 -0.146745 0.309905 -0.129831 0.018316 0.092058 -0.041173 0.143202 0.100110 0.065891 0.041421 0.048402 -0.159930 0.097241 -0.104954 -0.121120 0.220105 0.077099 -0.006323 -0.119508 -0.094827 -0.338963 0.088675 -0.273350 -0.229540 0.034845 0.009941 0.041491 0.081512 0.079185 -0.007115 0.085639 -0.071970 -0.031312 -0.093030 0.059797 0.137629 -0.014745 -0.082538 0.102488 -0.058345 -0.029390 0.016244 0.250511 0.021807 0.122869 0.035235 -0.083241 0.016229 0.185528 -0.057245 -0.220626 -0.050514 -0.083799 0.133095 0.060037 -0.120571 -0.169503 0.219677 -0.065538 0.196302 -0.022588 -0.060770 0.025045 0.089404 0.232958 0.058604 -0.175211
sent_14 -0.057375 0.091658 0.015566 -0.085002 -0.029984 -0.146711 0.091428 -0.017384 -0.077970 0.075201 0.140761 -0.018058 0.055288 -0.089036 0.033192 -0.055348 0.186481 0.014311 -0.060187 0.099719 0.074088 0.008909 0.032134 0.122663 0.029132 0.099706 0.005209 -0.082959 0.138885 -0.041991 -0.176723 -0.024430 0.075219 -0.121628 0.119468 0.010654 0.117849 0.048603 0.077622 0.055130 0.013305 0.028534 0.037136 -0.067866 -0.035951 -0.026927 -0.088514 -0.088226 0.181473 -0.064841 -0.002745 -0.079492 0.006241 -0.224373 -0.094285 -0.006580 -0.260709 0.024843 0.038098 0.096369 0.034999 0.002911 0.005310 0.146872 -0.011762 -0.035406 0.026456 -0.156513 0.035061 -0.067442 -0.117203 0.063472 0.028081 0.068562 0.062290 0.255931 0.126091 -0.020268 0.020619 0.042622 0.126739 0.115710 0.029796 0.011352 -0.162318 -0.161487 0.074522 -0.102125 0.064873 -0.024378 0.061262 0.138902 0.180541 -0.078501 0.041368 0.152187 0.029326 0.114644 0.070040 0.003231
sent_15 -0.124116 -0.037884 -0.078229 -0.028728 -0.287485 -0.070905 -0.064195 0.237482 0.028053 0.008707 -0.047558 -0.049597 -0.036034 0.070058 0.118116 -0.073527 0.089143 0.105276 0.023096 0.053488 0.073256 -0.099494 0.000508 0.065821 0.151607 0.178201 -0.021660 -0.006226 -0.083692 -0.082193 -0.035876 0.116910 -0.025086 -0.034412 -0.000684 0.173410 0.034384 0.076627 -0.057428 -0.069580 0.165661 -0.149540 0.039412 -0.062056 -0.128797 0.050515 -0.086872 -0.024149 0.262572 -0.053178 0.119850 0.007193 -0.103244 -0.150498 0.030256 -0.141006 -0.082804 -0.046013 -0.117356 0.083347 0.031425 0.172164 0.048664 0.213337 -0.015765 -0.001711 -0.187693 0.120888 -0.079313 0.060415 -0.091258 -0.039273 -0.188576 0.185739 0.046742 0.172646 -0.028934 -0.181863 0.110724 -0.051369 0.010874 0.009449 -0.185028 0.004260 -0.020214 0.015477 0.075844 0.022251 -0.118230 -0.067950 0.218931 -0.014514 0.092386 -0.120168 0.144791 0.010467 0.168684 0.195508 -0.018396 -0.094292
sent_16 -0.016251 -0.127559 0.067834 -0.235404 -0.071587 -0.228956 0.067084 0.130453 -0.145264 0.058618 -0.006031 -0.048562 0.088164 -0.013245 0.132233 0.176175 -0.172932 -0.078267 -0.254738 0.223357 0.055924 -0.114421 -0.091918 0.119727 0.240758 0.214010 0.227928 -0.153366 0.057265 -0.142615 -0.105724 0.124756 0.086440 -0.083390 0.137907 -0.026325 0.206175 0.139626 0.061020 -0.035326 0.138880 0.046196 -0.059715 -0.023352 0.043019 0.028685 -0.057086 -0.329642 0.461766 -0.059285 0.223509 -0.253110 -0.036747 -0.299485 0.086223 -0.042353 -0.042370 0.067688 -0.267626 -0.044333 -0.132907 0.050209 -0.066017 0.351885 0.106103 0.023159 0.074279 0.152872 -0.045176 0.090235 -0.109096 -0.046434 -0.188559 0.110890 0.015226 -0.020658 -0.114698 -0.094127 0.137622 0.180821 -0.046675 0.079066 0.094577 0.027321 0.061731 0.241148 0.126718 -0.140549 0.010634 -0.256313 -0.066577 0.128017 0.085997 0.183725 0.128315 -0.019398 0.267750 0.179349 0.200345 0.093877
sent_17 -0.115771 0.067135 -0.073998 -0.184290 -0.128987 -0.000891 -0.114523 0.199728 -0.036133 -0.008875 0.064065 -0.095673 -0.215654 0.171860 0.116649 -0.042148 0.147283 0.047105 -0.028929 -0.073047 0.222531 -0.125423 -0.001638 0.121157 0.174075 0.199518 -0.024267 0.077261 0.133036 -0.002348 -0.033526 0.054720 -0.117109 0.217043 0.055444 0.067833 0.132127 0.055462 -0.005861 0.034794 0.042165 -0.002657 0.054729 -0.163798 -0.079611 0.017884 -0.021372 -0.062272 0.161906 -0.161845 0.171723 -0.126845 0.003094 -0.135300 0.065238 -0.223447 -0.305372 -0.036233 -0.226942 -0.041789 0.070171 0.004050 0.187654 0.334099 0.248746 0.011771 -0.282058 0.083549 -0.203825 0.159484 -0.193190 -0.074089 -0.207803 0.077685 0.035136 0.031806 0.111264 -0.175699 0.011083 -0.102745 0.095986 -0.012863 0.059764 0.044390 -0.112855 0.048516 0.028244 -0.185292 -0.023259 -0.117139 0.132142 -0.071948 0.084527 -0.218568 0.199544 -0.007839 0.143021 -0.001408 0.046610 0.077055
sent_18 0.014773 0.057370 0.114803 0.026725 -0.032585 -0.059553 -0.016890 -0.059831 -0.023558 0.032942 0.075093 -0.061377 -0.086005 -0.015249 0.068849 -0.076638 -0.017504 -0.033226 -0.057317 0.095699 -0.001983 0.108773 0.003489 -0.038132 0.049412 0.034062 -0.048639 0.046449 0.013726 -0.030416 -0.086172 0.045079 -0.014130 -0.042819 -0.042062 0.010569 -0.010751 -0.053737 -0.044139 0.167374 -0.022272 -0.063178 0.096673 -0.005357 -0.004308 0.063974 0.037489 0.018621 0.091562 -0.082156 -0.021981 -0.069034 0.003510 -0.015124 -0.006043 -0.059404 0.005285 -0.062410 -0.010797 0.012571 -0.021706 -0.014570 0.045575 -0.007274 0.008604 0.042899 -0.017270 0.069224 0.060495 -0.026643 -0.020394 0.000554 -0.028089 -0.007422 -0.017057 0.020214 -0.028140 0.055320 -0.045236 0.050645 0.030813 -0.027646 0.024037 0.031735 -0.034229 -0.032255 0.066471 -0.113762 0.050369 -0.006405 0.018819 -0.020857 -0.001449 -0.070074 0.058123 0.093326 -0.019358 -0.024560 -0.062569 -0.068311
sent_19 0.155703 0.103595 -0.095050 -0.080623 -0.107478 0.042216 0.068490 0.120311 -0.000849 -0.104313 0.176577 -0.022295 -0.140343 0.058894 0.231746 -0.034852 0.031563 -0.050826 -0.015737 -0.006228 0.135205 0.007126 -0.011454 -0.103595 0.078223 0.006579 -0.050023 0.034343 0.047707 -0.053777 -0.109390 0.093024 0.029804 -0.087599 0.114828 0.034747 0.021462 -0.005327 -0.107947 0.247370 0.057225 0.028686 -0.012906 -0.013961 -0.150202 0.059505 0.082217 -0.011900 0.168343 -0.069236 -0.044910 -0.031981 -0.069725 -0.210556 0.028901 -0.104127 -0.118475 -0.039787 0.059521 -0.040082 0.097616 0.026992 -0.043615 0.025971 0.023093 0.057564 -0.052949 0.040936 -0.015380 -0.044806 0.038432 -0.025391 -0.056668 0.043855 -0.051408 0.120390 -0.034865 0.070475 -0.122133 0.011389 -0.014361 0.059498 0.024534 0.100835 -0.003480 -0.053019 0.095763 -0.055321 0.043269 -0.121284 0.068301 -0.036434 0.091060 -0.138313 0.098538 0.057793 -0.001412 0.077997 -0.093547 -0.109194
sent_20 0.003190 -0.063094 -0.143190 -0.153870 -0.062236 0.120712 -0.128446 0.251455 -0.043437 -0.029119 0.009129 -0.034741 -0.168324 0.126021 0.105214 -0.092199 -0.029694 -0.067002 -0.038425 0.062952 0.136240 -0.038867 0.029714 0.040662 0.178086 0.125643 -0.150560 0.050698 0.169284 0.023806 0.011312 -0.080527 -0.100566 0.213233 0.083533 0.124582 0.208724 0.080626 0.052286 0.028538 0.089838 -0.107010 0.017960 -0.019931 0.036983 0.038885 0.003182 -0.058336 0.100196 -0.063113 0.126927 -0.191670 -0.012816 -0.127300 -0.096782 -0.124342 -0.156988 -0.014304 -0.270506 0.010630 0.020049 0.075305 0.017215 0.162710 0.215602 -0.111165 -0.145498 0.069903 -0.058622 0.169982 -0.081212 -0.111132 -0.113707 -0.068638 -0.014318 0.062209 0.147825 -0.160043 0.059563 -0.103001 0.234252 -0.096439 0.101067 0.058860 0.001402 0.084459 -0.020579 -0.105060 -0.066948 -0.117294 0.077520 -0.081596 -0.033422 -0.189473 0.134756 0.014339 0.038865 -0.054553 -0.000340 0.207235
sent_21 0.068720 -0.031170 -0.047176 -0.086629 -0.192110 0.109276 -0.041411 0.175885 0.062721 -0.187694 0.011559 -0.056837 -0.160333 0.115251 0.192475 -0.044089 0.037404 -0.055559 -0.131648 -0.042059 0.184626 -0.143565 0.004808 -0.235375 0.093597 0.031868 -0.030147 0.090334 0.050126 -0.110201 -0.050515 0.093888 0.006031 -0.126221 0.052081 0.166978 0.048703 0.074866 -0.066871 0.149191 0.142536 0.004092 -0.049503 -0.109935 -0.052271 0.016643 0.103829 -0.076418 0.105857 -0.025586 0.064834 -0.054776 -0.020763 -0.238870 -0.001336 -0.118130 -0.000305 -0.061943 -0.065083 -0.015739 0.088636 0.048607 0.010491 0.150960 0.150081 0.006662 -0.180901 0.134670 -0.094165 0.068117 -0.015513 -0.045416 -0.117885 0.091629 -0.126436 -0.050825 -0.074595 0.063355 -0.101418 -0.006151 -0.020853 -0.002444 0.057091 0.176073 0.100368 -0.011308 0.009791 -0.008324 -0.053574 -0.061329 0.084066 -0.045710 0.004957 -0.031525 0.177388 -0.009390 0.047645 0.091059 -0.105902 -0.010601
sent_22 -0.025459 0.052165 0.016332 0.016290 -0.026429 -0.073569 -0.001081 -0.010956 -0.007847 -0.003264 0.034845 0.002296 -0.056170 0.003309 0.021254 -0.055070 -0.021218 -0.075075 -0.036647 -0.010045 0.023662 -0.007173 -0.011557 -0.003871 0.042415 -0.002656 -0.010862 0.035937 0.012951 0.054173 -0.038164 0.022392 -0.015098 -0.079300 0.042520 -0.018786 0.000926 -0.028638 -0.050179 0.050448 0.040468 -0.026662 0.026301 -0.060718 -0.023686 -0.023649 -0.049173 -0.018112 0.087307 0.010915 0.060767 -0.050293 0.020320 -0.086631 -0.045698 -0.037385 0.000141 -0.004354 -0.031089 0.015245 -0.007003 -0.030502 -0.004607 0.014467 0.010143 -0.014226 0.015604 0.027719 0.053871 0.028970 -0.030286 -0.018132 -0.053429 0.002312 -0.027847 -0.007769 0.026472 0.017657 0.022663 0.024759 0.031334 0.005252 -0.022941 0.002728 -0.011602 -0.017012 0.043618 -0.018304 -0.062379 -0.014100 0.007284 -0.011973 0.027177 -0.009629 0.023262 0.075182 0.052883 0.039750 0.043932 -0.048583
sent_23 0.112296 0.083246 -0.126506 -0.149537 -0.105141 -0.064625 -0.088872 0.166833 0.056379 -0.084966 0.044427 -0.011870 -0.236393 0.100781 0.144282 0.053609 0.006905 -0.279075 -0.158224 -0.154821 0.183422 -0.047661 0.058798 -0.159090 0.213455 0.141903 -0.060832 0.018380 0.233791 -0.092081 -0.129247 0.017415 -0.055860 0.036524 0.175029 0.077045 0.152660 0.130228 -0.052176 0.175053 0.167299 0.052528 0.005350 -0.201856 0.078776 0.003250 0.089145 -0.172368 0.029397 0.027020 0.201947 -0.070404 0.053716 -0.225789 -0.140024 -0.197959 -0.063026 -0.013393 -0.228236 -0.143104 0.131138 0.001986 0.031624 0.183833 0.278028 0.005999 -0.174949 0.193083 0.085878 0.112577 -0.175306 -0.050323 -0.152748 0.102307 -0.123474 -0.121897 -0.033905 -0.060751 -0.084082 0.024213 0.171230 0.110020 0.165806 0.146661 0.014620 -0.019312 -0.089820 -0.009564 0.049447 -0.110679 0.051721 -0.057234 -0.117705 -0.086811 0.075387 0.090775 0.006150 -0.020991 -0.047210 0.141803
sent_24 0.047926 0.146543 -0.223515 0.071156 -0.005277 -0.096946 0.056759 0.075648 -0.002028 0.025720 0.050451 0.018350 -0.045664 -0.035429 0.116627 -0.015504 0.117634 -0.094406 0.045821 -0.062369 0.052792 0.060170 0.019700 -0.008061 0.095609 0.033339 0.031262 -0.137142 0.075830 -0.033511 -0.160904 0.005194 0.058089 -0.117363 0.106405 -0.033093 0.059640 -0.056586 -0.142790 0.149116 0.064482 -0.040197 -0.017735 -0.090013 -0.124650 0.015287 -0.093539 -0.042860 0.101465 0.030722 0.037891 0.036520 -0.029428 -0.121217 -0.156402 -0.021217 -0.078041 0.016653 0.015652 -0.062713 0.102858 -0.012883 0.033422 0.003448 -0.034378 0.031022 -0.071222 0.068496 0.169696 -0.042835 -0.117095 0.040988 0.009531 0.098602 0.077089 0.154593 -0.062521 0.008107 -0.030222 0.020370 0.029265 0.139141 -0.058114 0.011301 -0.062237 -0.064001 -0.025614 -0.027111 0.081922 0.022511 0.128559 -0.002253 0.019288 -0.044512 -0.004085 -0.008176 0.035449 0.114061 -0.036999 -0.071832
sent_25 -0.050174 0.028062 -0.021111 0.030727 -0.173062 0.018555 -0.135104 0.072013 -0.002706 -0.086949 -0.137401 -0.050054 -0.106825 0.102658 0.036469 -0.045335 -0.002099 -0.068393 -0.130670 -0.069068 0.148700 -0.162371 0.020324 -0.086634 0.152817 0.033631 -0.047411 0.041125 0.087341 -0.034297 0.000388 -0.011071 -0.041753 -0.072398 0.090084 0.170469 0.117427 0.066964 -0.036137 -0.008826 0.153424 -0.027774 0.004789 -0.187505 0.016246 -0.070184 -0.013168 -0.192785 0.073306 0.040970 0.164472 -0.034774 0.075044 -0.116758 -0.097053 -0.138733 0.073403 -0.021965 -0.173804 -0.018237 0.004574 -0.018718 0.063373 0.157869 0.176960 -0.008583 -0.211205 0.153472 0.069331 0.201939 -0.153597 -0.070195 -0.035113 0.076456 -0.081015 -0.077533 -0.096400 0.001849 0.008659 0.040327 0.037227 -0.003736 -0.084926 0.100690 -0.006428 0.018024 -0.047561 0.043360 -0.068296 -0.027883 0.076366 -0.019883 -0.049628 0.071448 0.110533 0.002182 0.124738 -0.014479 -0.016801 0.016198
sent_26 -0.026218 0.044195 0.011446 0.139971 -0.197192 0.024559 -0.142767 0.161028 0.006473 0.133205 -0.087524 -0.035122 -0.065393 -0.012503 0.131051 -0.028162 0.086599 -0.133296 -0.033614 0.039097 -0.015959 0.049946 0.107947 -0.085921 0.070631 0.041668 -0.120444 0.089338 0.020277 -0.090956 -0.052532 0.037494 -0.051579 -0.004585 0.053528 0.118867 0.027162 -0.011630 -0.124568 0.082739 0.053417 -0.077286 -0.004422 -0.029792 -0.007423 -0.097085 -0.005550 0.007433 -0.030539 0.062759 0.004854 0.080994 -0.054676 -0.075451 -0.080495 -0.057385 0.036172 -0.017702 0.012141 -0.060802 -0.003817 0.120326 -0.004111 0.037112 0.054406 0.053947 -0.057238 0.073290 0.203065 0.131234 -0.036187 -0.078341 -0.004494 0.002018 -0.006531 0.022446 -0.091365 0.051065 0.056012 -0.010578 0.081692 0.041200 -0.016557 0.057690 -0.046677 -0.002266 -0.027235 0.114087 0.133547 0.032334 0.018456 0.030691 0.015189 -0.052118 0.032182 0.078580 -0.008402 -0.053962 -0.076945 -0.082761
sent_27 -0.049129 0.023217 -0.108804 0.103337 -0.156786 0.021939 -0.096975 0.024745 0.050276 0.066726 -0.083036 0.038422 -0.220705 0.049400 0.097517 -0.115059 -0.010493 -0.010254 -0.016042 0.009626 0.070649 -0.146843 0.027713 0.002590 0.068463 0.111997 -0.064326 0.070660 0.020049 -0.020207 0.007585 0.020252 -0.094011 -0.152621 0.091623 0.023938 0.059682 0.067877 -0.051192 0.077300 0.145252 -0.075118 -0.011587 -0.095500 0.023639 -0.035775 -0.147778 -0.009435 0.152519 0.059495 0.124888 0.000283 -0.080725 -0.094596 -0.020137 -0.140608 0.037036 -0.056464 -0.093168 0.057094 0.055937 0.016688 0.090880 0.038152 0.162110 -0.000806 -0.214068 0.051574 0.077299 0.110148 -0.131400 0.003652 -0.116588 0.064241 -0.040119 -0.013247 -0.094158 -0.048117 0.004023 -0.042155 0.011982 0.023362 -0.081662 -0.010056 -0.026899 -0.033126 -0.009638 0.021417 0.008787 0.029539 0.150073 -0.139007 -0.067475 -0.025218 0.084407 0.021851 0.108069 0.075849 0.014450 -0.039241
sent_28 -0.105645 -0.016520 -0.067741 -0.125715 -0.055372 0.136315 -0.154942 0.209941 -0.002697 -0.047903 -0.091964 -0.009973 -0.224099 0.093764 0.073746 0.040149 0.126705 -0.091717 -0.148512 -0.127872 0.112139 -0.040937 0.016070 -0.126270 0.139307 0.220501 -0.071140 0.061853 0.142459 -0.067745 -0.047971 0.040470 -0.068791 0.176526 0.092204 0.075255 0.126991 0.037108 -0.050933 0.106224 0.085237 0.011467 0.043173 -0.201674 0.119708 -0.059675 0.085923 -0.107022 0.028142 -0.096161 0.260173 -0.040999 0.057361 -0.144204 -0.053458 -0.235792 -0.110999 -0.051404 -0.153730 -0.050571 0.144000 0.070073 0.062035 0.268920 0.314495 0.007180 -0.227341 0.148173 -0.090209 0.217836 -0.117020 -0.083557 -0.125417 0.106732 -0.130256 -0.115274 0.027759 -0.098819 -0.068202 -0.028308 0.168241 0.032314 0.259237 0.120443 -0.085885 0.032326 -0.068656 -0.083002 0.059154 -0.068150 0.054033 -0.036223 -0.017512 -0.077712 0.126392 0.068789 -0.061619 -0.093253 0.012852 0.137928
sent_29 -0.011940 0.047466 -0.085365 -0.121649 -0.084461 -0.123856 0.038423 0.147202 -0.056044 0.029512 0.030559 0.016156 0.041619 0.012617 0.043011 0.048084 0.056447 -0.125786 -0.112560 -0.097225 -0.084301 0.110244 0.053012 -0.007300 0.100859 0.139443 -0.034294 -0.041249 0.054720 -0.018925 -0.118831 0.026972 0.046738 0.113692 0.031648 0.047601 0.110852 0.000168 -0.005705 0.091154 -0.007600 0.009732 -0.044640 -0.018142 0.050677 -0.009594 0.040928 0.005709 -0.002989 0.065721 0.077336 -0.146092 -0.011593 -0.123695 -0.115160 -0.097650 -0.022747 -0.011274 -0.188540 -0.053688 0.051139 0.024386 -0.060515 0.130708 0.039628 -0.096317 0.034103 0.072909 0.147937 0.020266 -0.105773 0.012539 -0.112268 0.026170 -0.052107 -0.070867 0.049236 -0.005940 0.003193 0.031728 0.164281 0.158962 0.227088 0.011442 -0.068591 -0.040225 0.047771 -0.021386 0.043032 -0.076351 0.028570 -0.037963 -0.050878 0.008278 0.033828 0.083107 -0.019727 -0.016728 -0.018210 0.087692
sent_30 -0.006496 -0.009824 -0.130193 0.082739 -0.097774 -0.016884 -0.009501 0.022261 0.040720 0.004505 -0.053542 0.087476 -0.115903 -0.003940 0.021797 0.070389 0.058133 -0.015981 0.014469 -0.079294 0.088547 -0.029581 0.088758 0.067725 0.041245 0.070783 0.015933 0.001253 -0.003625 0.015352 -0.054419 -0.015099 -0.031589 -0.060730 0.109366 0.097639 -0.014937 -0.018033 -0.025873 0.058158 0.094851 -0.075300 0.024889 -0.126522 -0.059805 0.030972 -0.136715 -0.001428 0.113066 -0.028349 0.068755 0.086563 -0.009402 -0.018245 -0.023172 -0.013917 0.090742 0.054976 -0.037002 -0.073862 0.072624 0.017674 0.019502 0.005470 0.103453 0.030794 -0.183191 0.083561 0.008340 0.019339 -0.097560 0.001098 -0.036473 0.074634 -0.031563 -0.026891 0.023272 -0.049082 -0.021346 0.102556 0.004805 0.068293 -0.085202 0.035788 -0.018651 -0.031468 -0.036193 0.022020 -0.015741 -0.045573 0.149144 0.036115 -0.051914 -0.056920 0.000217 0.028336 0.058414 0.063149 -0.028993 -0.013864
sent_31 -0.018111 0.028160 -0.043362 -0.010079 -0.168419 -0.105927 -0.058719 0.110257 -0.007633 0.002556 -0.069909 -0.030769 -0.175278 0.024241 0.190681 -0.069489 0.073714 -0.048653 -0.084874 -0.037541 0.194271 0.022893 0.054570 -0.040842 0.190960 0.145350 -0.024671 -0.045300 0.061999 -0.168331 -0.093091 -0.018510 0.004178 -0.090478 -0.007547 0.153737 0.102639 0.055384 0.019896 0.139883 0.167627 -0.062717 0.019418 -0.117491 0.020025 0.010430 0.002880 -0.163265 0.052816 0.007268 0.158007 -0.017912 0.044985 -0.224815 -0.121039 -0.147543 0.019450 -0.046825 -0.117146 -0.007194 0.130971 0.060415 0.135667 0.150078 0.120981 0.021117 -0.186266 0.161852 0.082577 0.030061 -0.167605 0.088685 -0.092363 0.211355 -0.079656 0.002792 -0.156401 -0.025107 -0.008854 -0.043770 0.067812 0.119704 0.046489 0.137605 -0.000198 -0.109175 -0.038911 -0.046914 0.044667 0.010501 0.084284 0.064402 0.014136 0.046748 0.062424 0.014702 0.021191 0.114317 -0.117665 0.013897
sent_32 -0.042390 -0.035429 -0.031462 -0.020182 -0.059024 0.001416 0.040695 -0.111750 -0.007437 -0.004919 -0.007349 0.031286 -0.044584 0.033102 0.008971 0.011353 -0.032206 0.042768 -0.055325 0.012842 0.075877 -0.101997 0.005654 0.039656 -0.007934 -0.010401 0.014730 0.045523 0.052582 0.021211 -0.022934 -0.064270 -0.045342 -0.099535 0.026841 0.010479 0.035271 0.001002 0.016624 0.033975 0.062693 0.015967 -0.002166 -0.115844 -0.042440 0.026371 -0.062545 -0.006864 0.094350 0.020234 0.018298 -0.063939 0.051825 -0.037642 0.003493 -0.008977 0.087911 -0.030628 -0.054058 0.050858 -0.013848 -0.036803 0.001739 0.039050 0.023270 0.008532 -0.080217 -0.017470 0.028036 0.000978 -0.027057 -0.027132 0.035482 0.007497 0.015949 0.010744 0.002501 0.002969 -0.065681 0.061644 0.017793 0.008409 -0.045324 0.063210 -0.017850 -0.044116 0.001374 -0.006403 -0.024652 -0.051466 0.050752 -0.012079 0.024583 0.005996 0.038962 -0.017789 0.087231 0.012674 0.011363 -0.058665
sent_33 -0.065333 0.046912 -0.060570 0.042079 -0.171893 -0.065466 -0.110348 0.073366 -0.005914 0.001662 -0.085241 -0.013222 -0.170249 0.013797 0.058123 -0.024455 0.043083 -0.073721 -0.108494 -0.045213 0.115655 -0.019376 0.017930 0.000326 0.206977 0.149834 -0.053105 -0.017061 0.067577 -0.115403 -0.145359 0.039511 -0.055877 -0.019052 0.083664 0.171959 0.091680 0.061393 -0.069962 0.074250 0.126562 -0.069851 0.048471 -0.123194 0.047241 -0.036129 -0.056007 -0.159000 0.110265 0.012727 0.189380 -0.013458 -0.017568 -0.120659 -0.108167 -0.131220 0.066739 0.011004 -0.081765 -0.047294 0.015829 0.018638 0.097177 0.099555 0.136177 -0.002398 -0.184665 0.148087 0.129158 0.153039 -0.138680 -0.013619 -0.103127 0.105692 -0.054474 -0.013110 -0.106582 -0.041931 0.019169 0.047151 0.023026 0.068355 -0.007431 0.058530 -0.085064 0.001898 -0.025302 0.006886 0.052846 0.003187 0.065610 0.018779 -0.049044 0.021852 0.084278 0.107956 0.048694 0.066233 -0.028839 0.007521
sent_34 -0.028436 0.054289 -0.009690 0.057532 -0.118732 -0.024071 -0.098846 0.046747 -0.011398 0.050629 -0.080677 -0.016237 -0.080901 0.021961 0.035412 -0.015252 0.009338 -0.058538 -0.102296 -0.008120 0.062314 -0.077289 0.030084 -0.019336 0.120738 0.110580 -0.065058 0.029438 0.044021 -0.031877 -0.041310 0.019140 -0.028622 -0.074946 0.096428 0.162263 0.088328 0.041925 -0.022010 0.016330 0.093630 -0.044272 0.010163 -0.121778 0.063018 -0.051278 -0.068836 -0.163188 0.094120 0.038361 0.135043 -0.001450 -0.010182 -0.073565 -0.100781 -0.107659 0.036451 -0.000790 -0.066039 0.013930 0.015852 0.008492 0.033436 0.088470 0.135314 -0.011093 -0.159383 0.100197 0.112257 0.136553 -0.119274 -0.018430 -0.038486 0.077822 -0.082000 -0.014425 -0.086720 0.001901 0.038460 0.037623 0.044045 0.014061 -0.058427 0.059516 -0.077177 0.025193 -0.026700 0.021651 0.001965 -0.009111 0.084069 0.003364 -0.028261 0.026203 0.041243 0.076966 0.057557 0.005187 -0.001358 -0.003827
sent_35 -0.031855 0.023013 -0.030447 0.041991 -0.147734 0.024740 -0.106186 0.078505 -0.013281 -0.040322 -0.110517 -0.027136 -0.071826 0.065718 0.030884 -0.019983 0.008901 -0.065018 -0.073386 -0.058460 0.095089 -0.119623 -0.002332 -0.073578 0.093562 0.012045 -0.034918 0.023023 0.040749 -0.043865 -0.006634 0.018040 -0.019171 -0.038875 0.069408 0.116564 0.062694 0.047698 -0.031500 0.000297 0.109634 -0.026978 0.008850 -0.129195 0.018867 -0.063382 0.002402 -0.126453 0.060640 0.044155 0.113785 0.000389 0.030199 -0.079773 -0.076180 -0.096668 0.071554 -0.012080 -0.120736 -0.024217 -0.005930 -0.009698 0.033359 0.106659 0.125445 -0.000594 -0.146450 0.115655 0.046510 0.142919 -0.103687 -0.052694 -0.029915 0.040316 -0.041526 -0.066131 -0.079529 -0.010362 0.004024 0.042408 0.016069 -0.010246 -0.080071 0.073674 -0.007503 0.027892 -0.050037 0.050553 -0.032151 -0.012182 0.056951 -0.027094 -0.054340 0.049288 0.088406 0.023845 0.082908 -0.007845 -0.011530 0.012057
sent_36 0.026314 0.072013 -0.072583 0.028337 0.006230 -0.111066 0.074507 -0.007139 -0.045649 0.034241 0.048966 0.020983 0.003293 -0.007069 0.051948 -0.032161 0.040377 0.016513 0.008818 -0.001502 0.037694 0.034061 -0.004535 0.022587 0.093582 0.021990 0.018934 -0.040990 0.034276 0.012609 -0.095176 -0.009558 0.056885 -0.043417 0.005985 0.047949 0.037837 -0.066777 -0.023242 0.033285 0.018131 -0.023954 0.009543 -0.019255 -0.019904 -0.004906 -0.055620 -0.042925 0.027540 -0.022500 -0.009893 -0.004829 0.047852 -0.054001 -0.094838 -0.020285 -0.028257 0.018784 -0.011952 0.014210 0.032214 -0.050595 0.010685 -0.000639 -0.016835 0.032611 0.029495 -0.020909 0.063891 -0.033750 -0.074960 0.023939 0.031474 0.014592 0.011887 0.069216 -0.038040 0.062007 -0.003115 0.062343 0.013196 0.038107 -0.056354 0.019659 -0.051901 -0.052653 0.031864 -0.004409 0.042090 0.033333 0.037351 0.010145 0.007486 0.000823 -0.005028 0.008462 0.034984 0.019377 -0.041611 -0.034818
sent_37 -0.134873 -0.068713 -0.138635 -0.081780 -0.110215 0.051946 0.056824 -0.072713 0.052853 -0.041735 -0.066158 0.029402 -0.180424 0.058061 0.085367 0.058779 0.013078 -0.030671 -0.120499 -0.109975 0.082474 -0.153376 0.024090 0.000641 0.054987 0.199444 -0.066144 0.054707 0.069753 -0.045164 -0.025387 -0.001170 -0.161655 -0.169340 0.138797 0.112977 0.058557 0.014324 -0.090147 0.137688 0.177034 0.086239 0.049211 -0.280635 -0.161408 0.013379 -0.098346 -0.054781 0.163037 0.065898 0.190405 -0.090011 0.037877 -0.218956 -0.025512 -0.085392 0.177626 -0.107920 -0.138393 0.030152 0.028983 0.084567 -0.000795 0.162884 -0.038342 0.122178 -0.228096 0.116467 0.067795 0.000196 -0.071582 -0.083687 0.002965 0.155722 0.017458 0.150481 -0.094629 -0.084764 -0.000617 0.053468 0.058716 0.133848 0.059354 0.076707 -0.001181 -0.023188 -0.069805 0.090730 -0.140074 -0.082302 0.065177 0.033751 0.176953 0.063068 -0.019347 -0.072054 0.088997 0.060403 0.071146 -0.088082
sent_38 -0.015851 0.053732 -0.215523 0.020012 -0.071566 -0.062790 -0.018150 0.076069 -0.005865 0.019243 -0.073201 -0.096838 -0.070592 0.041681 0.107693 -0.064256 0.038099 -0.112068 -0.056249 -0.098352 0.139903 -0.112961 -0.003795 -0.097114 0.183741 0.029564 0.006609 -0.085827 0.197641 -0.056662 -0.084715 -0.018955 -0.035173 -0.159992 0.113933 0.042910 0.176660 0.020307 -0.058630 0.115115 0.140013 0.009536 -0.048859 -0.218559 -0.022826 -0.013282 -0.038403 -0.192077 0.197133 0.046887 0.161931 -0.061317 0.031087 -0.254533 -0.214564 -0.155600 -0.035703 -0.064912 -0.166324 0.013981 0.026829 -0.057253 0.064323 0.172695 0.066352 0.009587 -0.154785 0.091607 0.178007 0.089993 -0.225923 -0.033985 0.007687 0.079501 0.057982 0.130125 -0.134102 -0.015749 -0.026002 0.055712 0.028314 0.071922 -0.057538 0.061059 -0.017762 0.001050 -0.031405 -0.014978 0.008152 0.023495 0.153933 -0.030111 0.007035 0.094194 0.128338 0.005440 0.160937 0.078367 0.020986 0.038970
sent_39 -0.011002 0.056318 -0.181492 0.030511 -0.090358 -0.066154 -0.036190 0.061586 0.000443 0.030297 -0.075185 -0.079047 -0.070854 0.034023 0.080187 -0.036514 0.005522 -0.097859 -0.054420 -0.092573 0.132949 -0.135311 -0.005892 -0.082394 0.162330 0.049362 -0.009873 -0.066109 0.173823 -0.061637 -0.081063 -0.010300 -0.040771 -0.150287 0.101516 0.066045 0.149916 0.038401 -0.055188 0.087218 0.128796 0.029432 -0.037180 -0.219466 -0.003287 -0.007712 -0.043620 -0.193824 0.180408 0.041569 0.174790 -0.051761 0.020944 -0.213484 -0.174743 -0.159435 0.007374 -0.053542 -0.162448 0.006415 0.028029 -0.050476 0.062797 0.151942 0.077762 0.011831 -0.169047 0.093060 0.153712 0.082490 -0.222843 -0.034606 0.005075 0.082778 0.030972 0.083512 -0.143471 -0.026058 -0.009894 0.057816 0.004187 0.063315 -0.067679 0.047294 -0.020847 0.013697 -0.047349 0.008595 -0.006803 0.018112 0.139488 -0.026665 -0.025299 0.100079 0.107331 0.013665 0.148959 0.069693 0.014933 0.034755
sent_40 0.021302 0.164422 -0.268659 -0.083188 -0.084139 -0.089414 -0.049523 0.232355 0.085698 -0.023483 0.084003 0.010381 -0.108938 0.036299 0.155391 0.072915 0.191107 -0.260569 -0.103716 -0.153157 0.102257 0.057936 0.073989 -0.144586 0.145170 0.164370 0.023190 -0.102734 0.202016 -0.117361 -0.267121 0.069105 0.058460 -0.031084 0.216963 0.042577 0.125847 0.060882 -0.201242 0.211238 0.129644 -0.025947 0.007967 -0.209678 -0.065375 -0.011180 -0.000256 -0.114061 0.080201 0.073722 0.141791 -0.023607 -0.046812 -0.210735 -0.191013 -0.139475 -0.132117 0.020087 -0.113599 -0.106533 0.164999 0.053000 0.019671 0.170538 0.188318 -0.011166 -0.169402 0.169564 0.131488 0.054290 -0.149575 0.001321 -0.131698 0.138535 -0.053692 0.003907 -0.038590 -0.012051 -0.081039 0.014102 0.188897 0.186628 0.152258 0.086570 -0.057916 0.010803 -0.105556 0.009768 0.156410 -0.033465 0.170764 0.000889 -0.060574 -0.151795 0.054101 0.128097 -0.009075 0.077379 -0.058679 -0.004565
sent_41 -0.144153 0.005838 -0.057654 0.053944 -0.053141 0.021393 -0.116657 0.085286 -0.021241 0.077017 -0.111447 0.009211 -0.179877 -0.023878 0.041487 -0.010234 0.164182 0.048892 -0.064339 -0.040593 0.062783 0.000507 0.020241 0.043705 0.161045 0.208290 -0.020024 -0.001355 -0.007714 -0.067852 -0.098599 0.039194 -0.049621 0.065659 0.025771 0.108649 0.028663 -0.044102 -0.072921 0.091291 0.050888 -0.095954 0.085520 -0.126548 0.030888 -0.021139 -0.042502 -0.045552 0.105312 -0.095722 0.174088 0.024005 -0.033927 -0.080193 -0.051574 -0.180630 0.008682 0.006656 0.022652 -0.001578 0.087612 0.056748 0.134602 0.105077 0.159079 0.024213 -0.204176 0.128268 -0.043409 0.137048 -0.070688 0.012052 -0.071427 0.112554 -0.071096 -0.025835 -0.082225 -0.061505 -0.015721 -0.017293 0.047468 0.026405 0.084997 0.074351 -0.137301 0.009593 -0.013629 -0.063383 0.073059 0.060466 0.091887 0.004889 0.038019 -0.054443 0.051802 0.096409 -0.025236 0.020098 -0.040142 -0.010966
sent_42 -0.009982 0.129802 -0.160589 0.084323 -0.116964 -0.048863 -0.041045 0.093769 -0.023385 0.019459 -0.032667 -0.025964 -0.065462 0.004283 0.078466 -0.023812 0.115030 -0.094738 -0.024474 -0.048625 0.144501 -0.054072 -0.002616 -0.025393 0.144190 0.048432 -0.021224 -0.109163 0.118409 -0.075482 -0.164711 0.018791 0.034384 -0.103184 0.134163 0.118118 0.112695 0.029855 -0.105761 0.077598 0.113778 -0.025063 0.018188 -0.148563 -0.055413 -0.062759 -0.038983 -0.175535 0.142128 0.015389 0.099568 0.032079 -0.033751 -0.128521 -0.149101 -0.110944 -0.035066 0.027894 -0.049687 -0.018586 0.034103 -0.002402 0.056641 0.089533 0.093995 0.007362 -0.150800 0.084939 0.138621 0.109697 -0.151973 -0.015843 0.028108 0.090519 0.020228 0.102616 -0.114900 -0.006032 -0.000471 0.043917 0.020522 0.074626 -0.097960 0.051874 -0.104117 -0.015062 -0.036927 0.024080 0.101783 0.003943 0.130072 0.033652 -0.010399 0.012257 0.064685 0.074655 0.065636 0.062094 -0.023767 -0.038444
sent_43 0.064837 0.065303 -0.019001 -0.105242 -0.002126 0.112251 -0.047044 0.236540 -0.105981 -0.054830 0.098318 0.046196 -0.109545 0.169882 0.118467 0.087178 -0.064708 0.015423 0.040890 -0.032204 0.078188 -0.137676 -0.177439 0.118822 0.142743 -0.090286 0.065693 0.016873 -0.063099 -0.004936 0.295357 0.024674 -0.033670 -0.068576 0.291337 -0.339321 -0.005829 0.025938 -0.022722 0.000894 0.160543 0.021259 -0.060154 0.076642 -0.148784 -0.090905 -0.012344 -0.149930 0.313314 -0.084725 0.208349 0.062995 -0.021339 -0.223154 0.089164 0.011608 -0.051279 -0.091739 0.006107 -0.064217 -0.037947 0.037588 -0.103566 0.113739 -0.080995 0.155904 -0.009925 0.212144 -0.145511 0.054626 0.037895 -0.115678 -0.183492 0.121172 0.034306 0.155759 -0.079065 -0.207452 0.046451 -0.074420 -0.012530 -0.001932 -0.031251 -0.056996 0.002142 0.083393 0.113533 -0.018238 -0.132369 -0.122937 -0.188401 -0.057608 0.144424 -0.012931 0.005547 -0.089944 0.031418 0.132052 0.157619 -0.090790
sent_44 -0.001145 0.096114 0.019790 -0.042487 -0.066184 0.089959 -0.220979 0.162995 -0.205112 0.041517 0.086810 -0.198674 -0.128469 -0.133695 0.278462 -0.276214 -0.046029 -0.157977 -0.133826 0.187010 -0.199771 -0.201699 -0.148659 -0.137491 0.274136 0.153782 0.090653 -0.012631 0.050422 -0.140496 0.063013 0.128971 0.037274 -0.239912 0.226510 -0.386153 0.089471 0.131676 -0.073258 0.156830 0.114582 0.120897 -0.230103 0.089011 -0.087029 0.021377 0.018197 0.106367 0.505634 0.022036 0.180999 -0.081893 -0.052483 -0.407133 -0.020078 -0.058103 -0.046587 -0.205649 0.112017 -0.086832 -0.062046 0.152441 -0.072010 0.100388 -0.302218 0.124855 0.053181 0.184055 0.176561 0.093862 0.032535 -0.050711 -0.300138 0.151625 0.126775 0.201845 -0.074722 0.057886 0.182545 -0.204125 0.135226 0.019429 0.191363 -0.105691 0.018646 -0.016499 0.082978 -0.116570 -0.218798 -0.120313 -0.194679 -0.104272 0.371364 0.050116 -0.071554 -0.112918 -0.044360 0.348856 0.241054 -0.176851
sent_45 -0.189373 -0.122304 -0.032882 0.082544 0.028803 0.184547 -0.227180 0.044722 -0.054158 0.130367 -0.131243 -0.022582 -0.156614 -0.150666 -0.029357 -0.052043 0.155421 -0.006789 -0.107205 -0.028148 0.093443 -0.190864 0.000283 -0.088290 0.117542 0.238686 0.020689 -0.064584 0.067752 -0.084397 0.015219 0.111931 -0.064606 0.046868 0.142742 0.057253 0.021198 0.086617 -0.012125 0.013428 -0.009202 0.003530 0.066151 -0.180376 0.057672 -0.086642 0.038095 -0.008816 0.260748 -0.163066 0.164641 0.063080 -0.040514 -0.088047 -0.028078 -0.232727 -0.000069 -0.086851 0.021389 0.002500 0.034774 0.177671 0.041028 0.206409 0.132688 0.154709 -0.154238 0.099062 -0.174741 0.306899 -0.013035 -0.004903 -0.017616 0.147196 -0.117572 -0.107571 -0.075763 -0.227628 0.074985 -0.116441 0.126137 -0.103218 0.197876 0.105471 -0.162285 0.122581 0.020167 -0.072791 0.031364 0.054227 0.008881 0.021498 0.177777 -0.063782 0.011150 0.133579 -0.072221 -0.004712 0.132385 0.088563
sent_46 -0.002544 -0.032859 0.016221 0.101656 -0.036296 0.019857 -0.113533 0.001724 0.002970 0.054775 0.048733 0.000060 -0.072258 -0.080723 0.016809 -0.083972 -0.016567 -0.150261 -0.038989 0.001016 0.047660 -0.083061 0.005502 -0.136565 0.041257 0.024784 -0.011211 -0.030381 0.041953 -0.029900 -0.010762 0.106675 0.002518 -0.097466 0.115919 -0.073197 -0.006050 0.081016 -0.031169 0.072030 0.030092 -0.008685 0.021349 -0.028723 -0.017069 -0.001722 0.040196 0.090108 0.175324 0.015012 -0.004659 0.003341 -0.031271 -0.070661 -0.047936 -0.098728 0.037357 -0.055374 -0.035942 -0.056072 -0.021183 0.083545 -0.015708 0.048251 0.030399 0.078859 -0.017836 0.105270 0.023602 0.120945 0.015911 0.027327 -0.074076 0.039809 -0.053791 -0.083851 -0.024551 -0.063161 0.015116 -0.015141 0.128888 -0.056779 0.018865 0.066523 -0.013023 0.049143 0.079897 -0.024824 -0.019185 0.003413 -0.022555 -0.079649 0.042056 -0.096401 0.012191 0.132189 -0.005822 0.005899 0.051646 0.013332
sent_47 0.023230 -0.051318 -0.081173 -0.025481 -0.107521 0.085680 -0.133467 0.151349 -0.042519 -0.067136 -0.000929 -0.028324 -0.186794 0.006997 0.215192 -0.232210 -0.088052 -0.024423 0.020100 0.003004 -0.140471 -0.021165 -0.074890 -0.052463 0.120131 0.001986 0.089093 0.065847 -0.041347 -0.032723 0.196331 -0.002997 -0.074952 -0.073575 0.019655 -0.347021 -0.062953 0.057027 -0.053492 0.057687 0.233430 -0.008992 -0.073191 0.011811 -0.141804 0.009258 -0.028762 0.142176 0.149610 0.025459 0.210704 -0.047931 0.059020 -0.254792 0.080686 -0.064409 0.095261 -0.229974 -0.063600 0.010285 0.000232 0.146132 -0.054028 0.013138 -0.211255 0.022774 0.049870 0.261983 0.124265 0.076138 0.007546 -0.082907 -0.274180 0.085656 0.160644 0.069164 0.000914 -0.065667 0.071991 -0.202601 0.122160 0.016144 -0.024969 -0.042644 0.158664 -0.049343 -0.014006 -0.039856 -0.277488 -0.113647 -0.108750 -0.157986 0.135720 0.003103 -0.003515 -0.246705 0.069813 0.280897 0.133854 -0.148795
sent_48 0.142335 0.118887 0.020262 -0.031301 -0.030674 0.025854 -0.044428 0.125379 -0.037971 -0.078924 0.095968 0.004531 -0.037885 0.031236 0.041649 0.061576 -0.054580 -0.037007 -0.037448 0.060049 0.133097 -0.171881 -0.147422 -0.059808 0.126564 -0.107196 -0.011062 -0.040840 0.041884 -0.037771 0.071740 0.054204 -0.000639 -0.210395 0.228015 -0.169842 0.072556 0.100900 -0.064774 0.082791 0.108523 0.019268 0.008898 0.031676 -0.148763 0.000863 0.052125 -0.076006 0.317730 -0.061391 0.119058 0.024691 -0.042292 -0.232180 -0.029725 -0.002110 -0.003771 -0.032850 0.039502 -0.074072 -0.035864 0.057396 -0.090798 0.040881 -0.056140 0.073900 -0.049353 0.203453 -0.062815 -0.005101 0.047133 -0.044960 -0.056164 0.142341 -0.040769 0.162019 -0.060596 -0.173723 -0.030967 -0.032262 -0.011789 -0.024664 -0.095334 0.029653 -0.010455 0.025873 0.106158 0.008947 -0.089799 -0.112000 -0.061416 -0.080692 0.107309 -0.096742 0.041420 0.059119 -0.074550 0.166298 0.005168 -0.067609
sent_49 0.025126 -0.206853 -0.058174 -0.112361 -0.036742 0.019397 -0.149318 -0.008574 -0.032347 -0.086996 0.008675 -0.113753 -0.225498 -0.152222 0.145820 -0.305828 -0.141502 -0.265261 -0.124449 -0.062116 0.111982 -0.076228 -0.028069 -0.266594 0.052793 0.088985 0.036362 -0.054175 0.128665 -0.097106 0.008441 0.098888 -0.065729 -0.150044 -0.039024 -0.057038 0.065090 0.213526 0.135770 0.285395 0.008154 0.080771 -0.021151 -0.032449 0.023152 0.098482 0.046000 0.023485 0.188839 0.158230 0.067412 -0.210504 -0.093655 -0.371201 -0.050033 -0.193224 0.074116 -0.119245 -0.187805 0.024691 -0.011897 0.035114 0.056554 0.093927 0.069051 -0.075442 0.025762 0.198527 0.139867 0.166240 0.006638 0.165390 -0.156673 -0.012601 0.008486 -0.165765 -0.135457 0.047997 -0.021912 -0.169966 0.102757 -0.015997 0.154683 0.119913 0.160824 0.061437 0.108993 -0.228777 -0.071581 -0.004820 -0.042150 -0.117959 0.117799 0.056688 0.109577 0.097366 0.094195 0.122446 0.145703 0.157518
sent_50 -0.289640 -0.204880 -0.107125 0.142598 -0.053044 0.168072 -0.210628 -0.011522 -0.047631 0.018784 -0.193222 0.007941 -0.203250 -0.112683 0.061203 -0.174963 0.197303 0.063133 -0.114744 0.078484 0.071739 0.006033 0.040361 -0.005403 0.177486 0.304302 0.040404 -0.136866 0.065365 -0.175277 -0.097587 0.043278 0.024455 0.080965 0.067218 0.130196 -0.016053 0.032081 0.001594 -0.022397 0.049361 -0.181421 0.089588 -0.114628 0.111924 -0.093659 -0.053636 0.034154 0.218370 -0.157003 0.125887 0.070388 0.021274 0.004369 -0.029400 -0.096315 0.055786 -0.100364 -0.008546 0.026902 0.051831 0.222879 0.020694 0.133134 0.034296 0.167772 -0.061529 0.026100 -0.055206 0.254887 -0.044978 -0.020544 -0.030718 0.177272 -0.080839 -0.019793 -0.078504 -0.109443 0.074404 0.018752 0.134149 -0.054125 0.212419 0.092095 -0.085217 -0.023271 -0.029789 -0.078423 0.091968 0.133403 -0.045223 0.162910 0.114963 -0.013079 -0.011017 0.045451 -0.087418 0.048553 0.074237 0.045510
sent_51 -0.047104 -0.077679 -0.023328 0.017890 -0.042458 0.056359 0.036255 -0.005294 -0.012418 0.032121 0.105173 0.077631 -0.011335 0.094369 0.060615 -0.015876 -0.039866 -0.042633 -0.002765 0.050340 0.120060 -0.114056 -0.094961 -0.079221 -0.035694 -0.049540 -0.031523 -0.023512 0.028821 -0.010898 -0.032933 0.060725 -0.008903 -0.184478 0.015767 -0.193300 0.013469 0.042152 -0.032838 0.120345 0.083800 0.025548 -0.053325 -0.047873 -0.062127 0.012332 0.004059 0.029818 0.135902 0.016008 0.068249 -0.079550 -0.022398 -0.121607 0.009778 -0.037599 0.074575 -0.112445 -0.011285 -0.009400 -0.010087 0.051548 -0.007938 0.120942 -0.006494 0.086447 -0.035002 0.129145 0.012384 0.022151 -0.016512 -0.021910 0.004948 0.073386 0.050991 0.076692 -0.077695 -0.029577 -0.090911 -0.002750 0.067813 -0.027659 -0.034619 0.126068 -0.015570 -0.031505 0.080531 -0.077946 0.027620 0.020805 -0.044322 -0.115549 0.109230 -0.017818 0.061442 0.031386 0.040098 0.036701 0.022583 -0.025909
sent_52 0.017337 -0.068971 0.036954 -0.082373 0.002478 -0.080625 -0.025159 -0.050243 0.055496 -0.027341 0.023943 -0.038869 -0.141499 -0.031374 0.078173 -0.076322 -0.045560 0.031282 -0.025453 -0.000541 0.087051 0.013015 0.078498 0.044771 0.113439 0.049250 0.043955 0.049536 0.024365 0.025561 0.005539 -0.045106 -0.141193 -0.088519 0.016816 0.062160 -0.008501 -0.027072 0.023843 0.103315 0.012773 -0.105201 0.034018 -0.099981 -0.099174 0.136191 -0.071742 0.010917 0.106981 -0.085278 -0.028468 -0.069143 0.069591 -0.117966 0.042318 -0.015968 0.014042 -0.052026 -0.000701 0.019495 0.010653 0.007657 0.027721 0.007964 -0.012046 0.060779 -0.017128 0.067443 -0.007165 0.013964 -0.019552 0.017473 -0.073883 -0.002306 -0.018033 0.054644 0.037502 -0.016702 0.008539 -0.018957 0.002820 -0.044371 -0.005363 0.052090 0.027231 0.030721 0.066919 -0.105322 -0.071832 -0.029299 0.041262 0.056139 0.078632 -0.112504 0.057315 -0.016786 0.103079 0.113539 -0.014111 -0.056698
sent_53 0.000618 -0.018360 0.016878 0.074916 -0.034554 0.010758 -0.078450 0.008474 -0.011896 0.045033 0.030332 0.016555 -0.056518 -0.060065 0.022079 -0.070498 -0.016083 -0.112111 -0.032687 0.003021 0.046133 -0.066497 0.005293 -0.103126 0.043286 0.004141 -0.003292 -0.014979 0.026086 -0.004482 -0.004461 0.078641 -0.000558 -0.074871 0.093197 -0.055436 -0.002085 0.050384 -0.015865 0.057508 0.027995 -0.023495 0.028454 -0.026943 -0.018190 0.004440 0.017305 0.066056 0.144410 0.004909 -0.002747 -0.002297 -0.007832 -0.065298 -0.050660 -0.076343 0.033954 -0.029898 -0.026360 -0.024402 -0.022086 0.059687 -0.015197 0.022814 0.028809 0.060019 -0.009069 0.073201 0.006551 0.083705 0.023693 0.015591 -0.050055 0.015442 -0.053861 -0.069519 -0.016261 -0.046529 0.008249 -0.008215 0.111042 -0.052994 -0.008088 0.064571 -0.019305 0.028332 0.067724 -0.010740 -0.021338 0.001191 -0.009485 -0.072066 0.028683 -0.083694 0.023556 0.109003 -0.002454 0.000156 0.021532 -0.001646
sent_54 -0.077028 0.099815 0.023240 0.159976 -0.088128 0.152710 -0.158395 0.210791 -0.153704 -0.109251 -0.110073 0.153543 -0.104991 -0.069553 0.060140 -0.093134 0.043563 -0.064376 0.008032 0.057226 -0.116626 -0.125964 -0.125596 -0.027783 0.157264 0.010775 0.001997 -0.118500 -0.158043 -0.014977 0.107416 0.175238 0.134006 -0.138798 0.302943 -0.352581 0.073117 0.055555 -0.135557 0.009558 0.199710 -0.115785 -0.000860 0.116815 -0.148796 -0.141120 -0.074546 0.077138 0.315339 -0.015016 0.270083 0.103831 0.012138 -0.190126 -0.016917 -0.003130 -0.036640 0.011522 0.142152 -0.192651 0.001188 0.219849 -0.107141 0.036865 -0.112967 0.116770 0.018675 0.265738 0.066129 0.198173 0.050927 0.040443 -0.159340 0.206018 -0.068259 0.111592 -0.022687 -0.144354 0.152485 -0.077746 0.077210 0.112737 -0.047605 -0.044121 -0.076478 -0.052332 0.113686 0.056653 -0.159167 -0.049574 -0.116011 -0.116013 0.206987 0.015001 -0.073939 -0.052979 -0.109541 0.230166 0.101288 -0.127037
sent_55 0.005090 -0.032911 0.008899 0.095780 -0.035435 0.013130 -0.094303 -0.000099 -0.003113 0.054083 0.034506 0.001057 -0.067769 -0.088475 0.012017 -0.083424 -0.012335 -0.144669 -0.037897 -0.004124 0.033785 -0.065559 0.004177 -0.131906 0.047565 0.018175 -0.000892 -0.024123 0.035491 -0.020150 -0.009306 0.104867 0.003278 -0.077773 0.101622 -0.062173 -0.008491 0.062347 -0.033989 0.066948 0.025814 -0.004290 0.021082 -0.029517 -0.002621 -0.008384 0.041027 0.095224 0.163303 0.017797 -0.012764 0.002311 -0.027768 -0.065085 -0.060507 -0.090980 0.042248 -0.053747 -0.039998 -0.045755 -0.029689 0.064013 -0.016159 0.027467 0.018160 0.077715 0.000721 0.084390 0.024652 0.115552 0.016350 0.016792 -0.066897 0.023302 -0.036964 -0.095702 -0.019592 -0.059561 0.020575 -0.015238 0.124313 -0.053603 0.018312 0.054260 -0.012148 0.045030 0.070537 -0.022861 -0.017287 0.006721 -0.017870 -0.079806 0.027804 -0.086526 0.014302 0.121583 -0.010135 -0.001734 0.051488 0.018915
sent_56 0.105814 0.071340 -0.090246 -0.244301 -0.043664 0.035054 0.007338 0.076546 -0.093173 -0.185326 0.066422 -0.126052 -0.070778 0.030413 0.143299 -0.110300 -0.130652 0.047264 -0.134425 0.104412 0.033448 -0.251069 -0.276132 -0.172745 0.225116 -0.050403 0.119872 -0.013197 0.136495 -0.039279 -0.011086 0.095508 -0.020569 -0.279401 0.094355 -0.273312 0.190085 0.152969 -0.063761 0.132456 0.120793 0.113243 -0.117009 0.035019 -0.258207 0.042881 -0.000045 0.039614 0.383728 -0.046576 0.175045 -0.160388 0.035439 -0.347932 0.063301 0.004689 0.170641 -0.196158 -0.068784 -0.023222 -0.112202 0.131913 -0.124603 0.115717 -0.258191 0.089389 0.016198 0.195272 0.085039 0.005081 0.113097 -0.051097 -0.120246 0.132930 -0.030390 0.161376 -0.104066 -0.038539 0.030836 -0.139389 -0.097650 0.003564 -0.005644 0.005848 0.007558 -0.024305 0.110708 0.046428 -0.177461 -0.286821 -0.121029 -0.132725 0.225352 -0.003980 0.042457 -0.207760 -0.117390 0.320458 0.030899 -0.249218
sent_57 -0.129516 -0.142545 -0.192930 -0.020483 0.084117 0.054132 -0.099322 -0.055254 -0.023566 0.036224 0.078911 -0.098715 -0.263080 -0.153320 0.193578 -0.215142 -0.002673 -0.076839 -0.139582 0.063731 0.213531 -0.117109 0.036985 -0.107893 0.172529 0.287426 0.041005 -0.122193 0.285867 -0.162835 -0.130495 0.096711 -0.120338 -0.259149 0.084757 -0.012732 0.020101 0.127491 -0.038457 0.255865 0.011347 -0.031030 -0.032736 -0.236382 -0.071462 0.107826 -0.130305 -0.011750 0.337675 -0.158792 0.152075 -0.060675 -0.078292 -0.275711 -0.039418 -0.147898 0.056276 -0.227258 0.042819 0.015191 0.043026 0.167624 0.029353 0.104703 -0.038126 0.238868 -0.169955 0.113504 0.092306 0.134289 -0.037462 0.023513 -0.038841 0.147022 0.081995 0.185384 -0.136553 -0.087240 -0.002235 -0.097322 0.034866 -0.057152 0.215862 0.073309 -0.029048 -0.018061 0.016312 -0.235280 0.086334 0.120520 0.074772 0.033231 0.289296 -0.102920 0.054448 -0.011470 0.085706 0.252217 0.186416 0.033246
sent_58 -0.144398 -0.201353 -0.198035 -0.054757 -0.122077 0.162767 -0.127752 0.029824 0.020594 -0.023583 0.008012 -0.076525 -0.155837 -0.032467 0.227453 -0.229204 -0.051051 -0.144419 -0.080270 0.021520 -0.024807 -0.078378 -0.103349 -0.192636 -0.000757 -0.025896 0.125310 -0.047134 0.074405 -0.081117 0.020453 0.033000 -0.011523 -0.193965 0.034970 -0.328430 0.046026 0.124198 -0.113287 0.219690 0.266558 -0.004497 -0.103242 -0.146129 -0.213201 -0.005764 -0.032929 0.149787 0.308029 0.146109 0.128122 -0.222134 -0.066354 -0.209897 0.007079 0.022138 0.177975 -0.251084 -0.152446 0.054939 -0.050973 0.135022 -0.021666 0.129810 -0.208300 0.073245 -0.018000 0.217489 0.107757 0.145847 0.077626 -0.036637 -0.183327 0.067044 0.138536 -0.010100 -0.131073 -0.080917 0.011913 -0.201808 0.154630 -0.047483 0.102353 0.083460 0.097874 0.041742 -0.071311 -0.052305 -0.118066 -0.087414 -0.060644 -0.189255 0.122672 -0.039751 0.071038 -0.208606 0.035862 0.149955 0.086393 -0.183147
sent_59 -0.017140 -0.002929 0.090585 -0.061252 -0.003870 -0.065486 -0.070999 -0.074223 -0.030075 -0.019137 0.029554 -0.047975 -0.043668 -0.045156 0.123015 -0.119342 -0.086875 -0.012385 -0.078255 0.079564 -0.000283 0.007368 0.060098 -0.041931 0.117375 0.046555 -0.006696 0.042934 0.013062 -0.006150 -0.041454 0.044215 -0.032856 -0.065700 -0.018510 0.007310 0.003834 -0.000865 0.019544 0.113972 -0.030096 -0.127165 0.024179 -0.058710 -0.054967 0.150286 -0.071755 0.036227 0.057926 -0.023082 -0.068436 -0.107911 0.096139 -0.065986 0.009982 -0.008047 0.033325 -0.096329 0.011319 -0.007795 -0.031116 0.040753 -0.000360 -0.008851 -0.068288 0.109849 0.009406 0.068163 0.068755 -0.007475 0.000611 0.070039 -0.053562 -0.053287 -0.012800 0.011625 0.029626 0.045778 0.003016 -0.039944 0.060016 -0.058256 0.004262 0.077783 -0.014004 0.013121 0.045232 -0.069757 -0.061799 0.002015 0.016639 -0.049448 0.057629 -0.136084 0.043286 -0.027099 0.049329 0.066295 -0.053011 -0.106093
sent_60 0.002022 -0.034963 0.021793 0.091459 -0.019569 0.021011 -0.082264 0.011015 0.000552 0.053851 0.059942 0.022209 -0.052628 -0.061074 0.007371 -0.064585 -0.017148 -0.125697 -0.021039 0.011375 0.053491 -0.073748 -0.017709 -0.133640 0.036003 0.008075 -0.017252 -0.036216 0.032771 -0.022342 -0.011782 0.113133 -0.003486 -0.094446 0.084343 -0.081880 -0.013024 0.067150 -0.026937 0.066695 0.017907 -0.016337 0.017172 -0.008114 -0.012963 0.001771 0.045149 0.087004 0.161133 -0.006198 -0.006430 0.010431 -0.023935 -0.060909 -0.040997 -0.078913 0.039477 -0.048765 -0.022952 -0.049453 -0.021181 0.074490 -0.017644 0.039640 0.029957 0.084794 -0.000276 0.100885 0.004484 0.097190 0.012181 0.009174 -0.060761 0.035465 -0.050551 -0.067330 -0.023422 -0.068236 0.008268 -0.008172 0.114005 -0.073904 0.003819 0.066073 -0.018290 0.040487 0.090658 -0.034099 -0.008416 0.026652 -0.019335 -0.076783 0.033384 -0.099384 0.027058 0.129754 -0.017618 -0.002286 0.042843 0.029011
sent_61 0.257803 -0.003490 -0.090051 -0.106837 -0.058009 0.084154 -0.059723 0.235178 -0.026858 -0.126327 0.072826 -0.029831 -0.129358 -0.012179 0.189489 0.007599 -0.064641 -0.073630 0.032511 0.023570 0.021851 -0.161996 -0.147701 -0.070932 0.154227 -0.061463 0.045768 -0.043987 -0.052995 -0.074701 0.195323 0.086325 -0.001449 -0.164553 0.256250 -0.246735 0.006851 0.130108 -0.038325 0.105592 0.178604 0.076060 -0.120045 0.144039 -0.099587 0.020873 0.029708 -0.047241 0.338209 -0.018032 0.142059 0.100324 -0.108896 -0.402965 0.062186 -0.007876 -0.081744 -0.116891 0.049277 -0.082989 0.062247 0.072834 -0.145667 0.027113 -0.145332 0.035916 0.046586 0.225765 -0.018843 0.016124 0.069910 -0.054877 -0.184071 0.157214 0.086490 0.214157 -0.073315 -0.156809 0.020624 -0.115041 -0.059009 0.038207 -0.073617 -0.046869 0.142015 0.046054 0.147763 -0.035345 -0.195928 -0.187616 -0.122370 -0.118844 0.155940 -0.018370 0.047234 -0.077642 0.004375 0.334958 0.147615 -0.004615
sent_62 0.109420 0.059147 0.009265 -0.039067 -0.017973 0.023170 -0.014885 0.149518 -0.081214 -0.040295 0.095457 0.031943 -0.011590 0.049350 0.046715 0.076530 -0.036876 0.005585 -0.002965 0.038861 0.120743 -0.141285 -0.158576 -0.027755 0.125672 -0.098926 0.003339 -0.050983 0.007550 -0.030243 0.085592 0.056381 0.016202 -0.136886 0.175532 -0.159487 0.058214 0.058964 -0.038070 0.046950 0.094916 0.011611 -0.012925 0.071662 -0.108786 -0.031100 0.038973 -0.073645 0.256067 -0.091421 0.113242 0.046048 -0.031783 -0.211213 -0.020625 0.027684 -0.007995 -0.041981 0.042045 -0.056010 -0.036718 0.047769 -0.091499 0.053428 -0.080697 0.086163 0.023081 0.163630 -0.101608 -0.002958 0.050952 -0.050051 -0.054826 0.113059 -0.005401 0.158212 -0.073890 -0.173067 -0.008387 -0.022190 -0.031712 -0.028095 -0.082146 0.027146 -0.015955 0.035856 0.129062 0.008144 -0.070002 -0.083586 -0.104933 -0.066719 0.100646 -0.057191 0.042520 0.029558 -0.069028 0.146491 0.005816 -0.031352
sent_63 -0.199616 -0.087254 -0.026235 0.003117 -0.144489 0.058099 -0.087653 0.095109 -0.022208 0.044738 -0.163727 -0.002901 -0.227360 -0.001724 0.050178 -0.003254 0.210473 0.079979 -0.060968 -0.031078 0.098130 0.087633 0.048924 0.126984 0.155704 0.252496 -0.049920 -0.005387 -0.041488 -0.119769 -0.112630 0.004267 -0.136949 0.133357 0.034576 0.234360 0.044592 -0.054217 -0.010887 0.132283 0.012792 -0.157170 0.154722 -0.130472 0.001787 0.012060 -0.024496 -0.059359 0.172517 -0.157843 0.166396 -0.018865 -0.060687 -0.122730 -0.010992 -0.162354 -0.016319 -0.021242 -0.047251 0.049199 0.052719 0.116309 0.115875 0.174157 0.139892 0.007652 -0.201538 0.112194 -0.041564 0.117563 -0.120887 -0.006661 -0.060624 0.135677 -0.040814 0.097918 -0.025866 -0.137760 -0.019740 0.022536 0.032177 0.073192 0.157710 0.065914 -0.145608 -0.020306 0.052186 -0.142324 0.083758 -0.000765 0.108564 0.129931 0.102144 -0.040569 0.114271 0.152668 -0.038018 0.032311 -0.034576 -0.014735
sent_64 0.061737 0.092518 -0.017279 -0.049766 -0.134295 -0.085017 -0.005870 0.068290 -0.018645 0.057900 0.046709 0.015337 -0.158099 0.020395 0.087928 0.036926 0.043035 -0.063246 -0.052763 -0.059151 0.104930 0.008297 0.080880 0.081180 0.086223 0.141207 -0.076949 0.088126 0.057829 0.005203 -0.095337 0.005430 -0.080004 0.024651 0.139630 0.125296 0.109717 0.012485 0.016703 0.129984 0.019293 0.006843 0.007479 -0.096703 0.026514 0.017570 -0.068579 -0.083222 0.085018 -0.054092 0.096413 -0.049361 -0.012039 -0.106802 -0.021589 -0.091556 -0.144894 0.004410 -0.093433 -0.041688 0.070664 -0.007428 0.037948 0.089070 0.176486 -0.014865 -0.141687 0.032250 0.043141 0.032172 -0.172817 -0.003402 -0.116292 0.042083 -0.064386 0.018349 0.105805 -0.068716 -0.033908 0.020697 0.042625 0.095968 0.064921 0.017164 -0.117859 -0.058810 0.044998 -0.101496 0.046236 -0.136454 0.099270 0.003768 -0.011371 -0.121096 0.068952 0.108817 0.004082 0.017411 -0.033405 0.040026
sent_65 0.145249 0.045985 -0.244468 -0.109481 -0.129687 0.015667 0.069799 0.236459 -0.033898 0.124621 -0.060958 -0.259740 -0.092710 -0.085212 0.176473 0.013611 0.081363 -0.189568 0.002474 -0.074842 0.174349 -0.099095 -0.048191 -0.027822 0.192389 0.087228 -0.027018 -0.181340 0.171574 -0.106623 -0.190814 -0.080058 -0.143643 0.000632 0.222231 0.287105 0.295723 0.018501 -0.062604 0.184525 0.070027 0.113197 -0.041060 -0.219624 -0.068084 0.094162 0.128942 -0.284999 0.315024 -0.110059 0.044872 -0.227952 -0.116078 -0.312547 -0.125790 -0.159668 -0.173893 -0.037643 -0.091444 0.034728 -0.030703 0.038858 -0.007780 0.208939 -0.000646 -0.015106 -0.041024 0.015076 0.060792 0.098017 -0.212697 -0.118316 0.060493 0.030827 0.050977 0.291789 -0.041634 -0.181472 0.084030 -0.109610 -0.065737 0.043068 0.084952 -0.036029 -0.068191 0.119719 -0.006512 -0.095612 0.048041 -0.289514 0.140856 0.138814 0.121050 0.068167 0.117572 0.022517 0.027719 0.151865 -0.064670 0.100395
sent_66 -0.070737 0.178292 -0.165081 -0.063294 -0.038216 0.052019 -0.060929 0.138922 -0.114011 -0.074943 -0.094617 -0.105930 -0.085522 0.053077 0.062963 -0.045413 0.130608 0.009335 -0.056940 -0.070365 0.054197 -0.150159 -0.048874 -0.027363 0.225263 0.041369 -0.048336 -0.020744 0.158450 0.007852 -0.112133 0.001102 -0.003364 0.026931 0.100881 0.017696 0.157114 0.013551 -0.100548 0.088046 0.075754 0.048035 -0.013206 -0.171394 -0.047459 -0.084054 0.024673 -0.194265 0.174637 -0.071880 0.182647 -0.047779 0.068616 -0.203100 -0.085029 -0.233082 -0.131014 -0.058918 -0.115945 0.000274 0.049018 0.007003 0.060193 0.230047 0.105441 0.009086 -0.221514 0.070374 -0.020155 0.160047 -0.131093 -0.107972 0.009389 0.031773 0.014774 0.084302 -0.007949 -0.095523 0.003681 -0.041945 0.015074 0.051782 0.015975 0.057598 -0.179928 0.004532 -0.043291 0.029512 0.007057 -0.075918 0.144551 -0.047372 0.067968 0.021946 0.143780 -0.002795 0.051631 0.034430 -0.005299 -0.028830
sent_67 0.033515 0.095101 -0.008142 0.066639 0.020299 -0.016982 0.040152 -0.048145 -0.019246 0.023620 0.009893 -0.022475 -0.062013 0.016698 0.077556 -0.072851 -0.014003 -0.009136 0.057422 0.023393 -0.026498 -0.035732 -0.043679 -0.016211 0.057647 0.025114 -0.045819 0.025626 -0.000817 -0.004039 -0.029478 0.005334 -0.008789 -0.053470 0.007143 -0.020384 -0.019768 -0.068698 -0.019191 0.057072 0.011914 0.035584 0.064562 -0.015786 -0.000512 0.043727 0.021804 -0.009219 0.026859 -0.028083 0.023302 -0.014986 0.105703 -0.077806 -0.002491 -0.106906 0.020953 -0.016786 -0.031014 0.010560 0.011760 -0.023672 0.038121 -0.009727 -0.019833 0.061421 0.013792 -0.006562 0.002832 -0.086406 -0.085015 -0.031496 0.005411 0.007948 0.007860 0.055986 -0.022722 0.093374 0.005642 0.036603 0.010245 0.021745 -0.041342 -0.027207 0.030108 -0.037560 -0.023443 0.060558 -0.071906 0.004221 0.003003 0.011286 0.021102 0.065332 -0.038245 -0.022497 0.046653 0.025039 -0.017707 -0.059037
sent_68 -0.042725 0.080031 -0.094355 -0.203020 -0.206957 0.084651 -0.078714 0.277706 -0.025525 -0.078417 -0.021768 -0.073821 -0.231734 0.130026 0.099788 0.059065 0.200637 -0.085223 -0.098568 -0.138582 0.147073 -0.023152 0.026534 0.007599 0.143629 0.121134 -0.033863 0.110651 0.121257 -0.023033 -0.165596 0.044393 -0.129718 0.180104 0.164409 0.173072 0.179322 0.043990 -0.021380 0.198619 -0.004021 0.001727 -0.004761 -0.190127 -0.086306 -0.008175 0.039610 -0.110548 0.180492 -0.195115 0.191122 -0.167747 -0.010985 -0.186919 0.065200 -0.180835 -0.198660 -0.036377 -0.211510 -0.133865 0.083643 0.064849 0.063640 0.355341 0.270148 -0.010896 -0.263930 0.156700 -0.063257 0.195076 -0.234739 -0.095933 -0.165423 0.078193 -0.125985 -0.064575 0.182560 -0.141897 -0.071668 -0.026524 0.035359 0.112405 0.228651 0.090842 -0.199599 -0.032074 0.048148 -0.168947 0.054681 -0.286083 0.176310 0.002245 0.053752 -0.178824 0.189689 0.091645 -0.056372 -0.005101 -0.071078 0.004233
sent_69 -0.047983 0.100794 0.054667 0.021957 -0.086526 -0.068820 -0.072058 -0.040741 -0.032752 0.036952 -0.031569 -0.096047 -0.069084 0.037079 0.031805 -0.059284 -0.018006 -0.009733 -0.092419 0.035701 0.050244 -0.050799 -0.011731 0.017844 0.181924 0.092170 -0.071776 0.029214 0.084699 -0.086826 -0.088447 0.000850 -0.045091 -0.026892 0.030226 0.130197 0.062018 0.032841 0.007367 0.018095 0.042768 0.014614 0.074124 -0.095227 0.074523 -0.017117 0.026622 -0.198109 0.069354 -0.020545 0.111527 -0.072284 0.075127 -0.095408 -0.054242 -0.166948 0.058981 -0.017664 -0.082030 0.022191 -0.053487 -0.028626 0.085109 0.087510 0.063911 0.025148 -0.088612 0.042491 0.083567 0.065426 -0.149179 -0.048960 -0.015066 0.034205 -0.042282 0.020231 -0.103680 0.044598 0.016226 0.060699 0.012580 0.015033 -0.010271 0.026234 -0.059220 -0.014022 -0.029150 0.042650 0.000759 0.020437 0.000068 0.042037 -0.029149 0.082058 0.041024 0.089846 0.072922 0.001216 -0.015908 -0.033909
sent_70 0.061155 0.217984 -0.127684 -0.018542 -0.130564 0.041868 0.035403 0.119587 -0.015989 -0.048755 0.047838 -0.040818 -0.122287 0.071237 0.179204 -0.095836 0.022414 -0.094771 0.077064 -0.040297 -0.040289 -0.067728 -0.093081 -0.089839 0.113320 -0.014718 -0.054768 0.062550 -0.013985 -0.033153 -0.127478 0.103304 -0.022266 -0.055504 0.115717 -0.062360 0.019789 -0.034035 -0.127925 0.151669 0.053616 0.061958 0.007681 -0.020513 -0.167631 0.050944 0.063438 0.032294 0.152905 -0.005764 0.043266 -0.088402 0.057361 -0.195239 0.064934 -0.175060 0.004575 -0.057087 -0.062538 -0.068430 0.003633 0.075550 -0.002516 0.068377 -0.052566 0.070812 -0.061521 0.061475 0.050368 -0.050950 -0.078676 -0.084392 -0.117741 0.017601 -0.007840 0.066096 0.037380 0.070594 0.010381 -0.030869 -0.001333 0.117783 -0.049159 -0.031598 -0.031404 -0.048668 -0.006305 0.140248 -0.112722 -0.181982 0.089213 -0.058297 0.052389 -0.002919 0.009479 -0.013128 0.025437 0.134099 -0.060121 -0.239580
sent_71 0.094924 0.257210 -0.297811 -0.151971 0.005232 0.008625 0.028993 0.229813 -0.015435 0.024921 0.060700 -0.069269 -0.162329 0.025595 0.297682 -0.001612 0.046274 -0.041369 -0.048597 -0.113885 0.195918 -0.052114 -0.031404 -0.119576 0.203857 0.077012 -0.097904 -0.013990 0.209405 -0.081551 -0.088104 -0.019197 -0.054775 -0.142372 0.191656 -0.007757 0.204994 -0.018316 -0.147902 0.262349 0.115460 0.042296 -0.028233 -0.205454 -0.170497 0.010387 -0.033177 -0.211011 0.216517 -0.001861 0.142287 -0.087948 -0.003523 -0.350658 -0.196251 -0.172800 -0.155679 -0.140872 -0.001872 0.037866 0.140014 0.015811 -0.050982 0.130667 0.007979 0.076305 -0.115014 0.032454 0.145072 -0.043296 -0.112759 -0.004287 -0.009511 0.129788 -0.068748 0.256352 -0.130655 -0.043777 -0.084035 -0.102336 0.035456 0.140373 0.033208 0.136303 -0.128204 -0.004266 -0.028613 0.026386 0.046821 -0.085236 0.135509 -0.047015 0.121850 -0.094323 0.072679 -0.007572 -0.017710 0.116459 -0.073884 -0.113447
sent_72 0.061907 0.171196 -0.134955 -0.237967 -0.256940 -0.219213 0.105417 0.236968 -0.074453 -0.025675 0.191734 0.035858 -0.199292 -0.034446 0.192364 0.024743 0.029938 -0.209185 -0.048326 -0.058881 0.035216 0.053487 -0.007945 0.044829 0.137482 0.213473 -0.043005 0.053265 0.125485 0.034553 -0.347896 0.149429 -0.103896 0.023613 0.234008 0.010273 0.176345 0.099745 -0.103474 0.253651 0.160042 0.033360 0.029127 -0.170067 -0.183127 0.058210 -0.080372 -0.070293 0.237638 -0.173655 0.249803 -0.265401 -0.002504 -0.273168 0.091319 -0.206997 -0.245070 -0.013127 -0.123873 -0.142680 0.078191 0.192326 -0.068268 0.214225 0.048668 0.054943 -0.058030 0.175830 0.115580 0.067415 -0.152115 -0.006529 -0.236715 0.107591 -0.071159 0.068695 0.252355 -0.213831 0.051060 -0.062099 0.112544 0.241970 0.106386 -0.020515 -0.192973 -0.116920 0.080085 -0.081845 0.018905 -0.437039 0.182519 -0.054951 0.152317 -0.243753 0.051884 0.129126 -0.058781 0.197193 -0.071479 -0.125273
sent_73 -0.043273 -0.041884 -0.058320 -0.061484 -0.072323 0.052259 0.039430 -0.006248 -0.036114 -0.030911 -0.067565 0.050203 -0.120497 0.056539 0.092516 0.046685 -0.066790 0.021815 -0.030258 -0.017051 0.147487 -0.110858 -0.062891 -0.000788 0.068498 0.053692 -0.056144 0.040588 0.032708 -0.007808 -0.085220 -0.045333 -0.143852 -0.051999 0.032070 0.115667 0.087853 -0.028629 -0.017569 0.066938 0.051677 0.023635 -0.005026 -0.136698 -0.059010 0.066272 -0.051325 -0.064259 0.102797 -0.014710 0.084384 -0.133968 0.049115 -0.109220 -0.001061 0.005399 0.067164 -0.052148 -0.053657 0.006388 -0.004203 0.052923 0.000377 0.094798 -0.017503 0.079364 -0.081307 0.021937 -0.001843 0.019547 -0.079152 -0.075209 0.030973 0.041401 0.029194 0.101310 0.008607 -0.079241 -0.028700 0.003478 -0.032126 0.000602 0.021052 0.091726 -0.017770 -0.007653 -0.011761 -0.021185 -0.056125 -0.090999 0.015962 0.006070 0.104264 0.036270 0.047514 -0.060183 0.015685 0.042736 -0.020767 -0.036886
sent_74 -0.010468 0.162808 -0.068649 -0.066244 -0.256253 -0.021374 -0.071312 0.161478 -0.021514 -0.025876 -0.002686 -0.060351 -0.154164 0.067447 0.155866 -0.057221 0.010642 -0.141921 -0.051001 -0.034259 0.052639 -0.005608 -0.044727 -0.066007 0.208417 0.048527 -0.091479 0.040421 0.044182 -0.114071 -0.213360 0.105516 -0.082341 0.015556 0.104142 0.101187 0.095430 0.055962 -0.108903 0.140323 0.087299 -0.034293 0.019927 -0.082397 -0.092980 0.012762 0.032854 -0.095718 0.186680 0.004512 0.106885 -0.125307 -0.019740 -0.196929 -0.004385 -0.166006 0.007722 -0.057297 -0.098492 -0.072952 -0.041398 0.099302 0.027006 0.150993 0.018430 0.038400 -0.122011 0.128717 0.163459 0.109720 -0.115621 -0.085352 -0.157500 0.047386 -0.005048 0.038750 0.005275 -0.058174 0.009052 -0.009916 0.025948 0.108222 -0.008475 0.051836 -0.124902 -0.011619 0.021027 0.056264 -0.003244 -0.174884 0.089818 -0.047329 0.010538 -0.059922 0.126741 0.116180 0.032126 0.099606 -0.068307 -0.180368
sent_75 -0.019953 0.153218 -0.031652 0.024304 -0.039297 -0.063364 -0.027918 -0.038820 -0.049359 0.041977 0.005948 -0.096641 -0.010555 0.022639 0.048219 -0.072312 0.038470 0.014468 -0.060717 0.040736 0.090760 -0.102042 -0.010094 0.018518 0.168191 0.052035 -0.039513 -0.037364 0.145528 -0.062871 -0.114084 -0.037345 -0.005406 -0.088297 0.073743 0.113902 0.107921 0.027654 -0.003921 0.019257 0.038128 0.052445 0.038835 -0.123068 -0.006308 -0.030784 0.020393 -0.226682 0.107918 -0.032627 0.069125 -0.055763 0.076106 -0.139097 -0.098399 -0.169905 -0.022011 -0.010773 -0.051039 0.044120 -0.031112 -0.028272 0.060052 0.105791 0.028398 0.037481 -0.080455 -0.025707 0.085035 0.047336 -0.157442 -0.051256 0.076254 0.053770 -0.005851 0.124552 -0.111632 0.064053 0.011883 0.042791 0.025370 0.017591 -0.055229 0.031148 -0.095064 -0.030351 -0.039834 0.057686 0.030573 0.034355 0.042541 0.072698 0.044923 0.071151 0.016955 0.057610 0.085902 0.013433 -0.008624 -0.065532
sent_76 0.103417 0.100614 -0.145560 -0.156545 -0.097886 -0.019474 -0.038949 0.107360 0.052579 -0.087539 0.172937 -0.005454 -0.297241 0.100115 0.189871 -0.047185 -0.059804 0.028061 -0.015916 -0.052835 0.154741 -0.005191 0.047833 0.116008 0.193014 0.135279 -0.043161 0.127639 0.073915 0.010835 -0.032881 -0.044675 -0.088504 -0.030779 0.190245 -0.108904 0.050738 0.041777 -0.053740 0.154058 0.188613 -0.002434 0.027380 -0.072297 -0.096633 0.094774 -0.015027 -0.047423 0.210230 -0.099836 0.100944 -0.062197 0.077780 -0.190200 0.067659 -0.201407 -0.067176 -0.042947 -0.034801 -0.063101 0.133074 0.015783 0.021441 0.022870 0.092983 0.010514 -0.159050 0.090162 -0.016610 -0.003546 -0.026514 -0.018786 -0.221189 0.113053 -0.121152 0.072893 0.064273 -0.018102 -0.102475 -0.010427 0.098345 0.086828 -0.012935 0.026072 -0.027650 -0.055478 0.064124 -0.037967 -0.082249 -0.225694 0.059485 -0.007377 0.022101 -0.184647 0.005306 0.043782 0.016144 0.133092 -0.036477 -0.086844
sent_77 0.052381 0.065468 -0.208002 -0.056295 -0.009278 -0.068029 0.041831 0.194783 -0.000281 -0.112896 -0.041444 0.097980 -0.288808 0.018278 0.265522 -0.006524 0.087725 -0.101877 0.046109 -0.105668 0.108185 0.147917 0.066032 0.019552 0.232842 0.244604 -0.030820 0.000477 -0.017086 -0.030893 -0.168374 -0.007164 -0.133162 0.073611 0.144760 0.060570 -0.033372 -0.038369 0.028639 0.215161 0.025054 -0.121191 0.123995 -0.037544 0.002135 0.157340 -0.086398 -0.132462 0.152349 -0.037564 0.101679 -0.038662 -0.019758 -0.251104 -0.011348 -0.219440 -0.163493 -0.025608 -0.119016 0.017067 0.190342 0.137219 -0.000956 0.098386 0.167418 0.065753 -0.088816 0.102076 0.015392 -0.027230 -0.220331 0.004801 -0.116718 0.043354 -0.078375 0.106649 0.044558 -0.044668 -0.075069 0.042803 0.089114 0.130926 0.182603 0.081484 -0.018071 -0.077841 0.045675 -0.126927 0.036793 -0.050701 0.152417 0.080703 0.076453 -0.103397 0.021073 0.120685 -0.016219 0.084399 -0.002700 -0.024323
sent_78 -0.044241 -0.012527 -0.012500 0.033222 -0.141987 -0.042731 -0.002695 0.052378 0.015573 -0.013783 -0.054409 0.026038 -0.139322 0.021096 0.063035 -0.031387 0.055419 -0.042819 -0.000696 -0.013199 0.040602 0.140282 0.043735 0.043722 0.078402 0.087367 -0.054756 -0.000457 -0.053427 -0.058297 -0.106285 0.006389 -0.069452 0.026428 0.015248 0.108757 0.018173 -0.052588 -0.026380 0.135317 0.033880 -0.147373 0.117534 -0.027646 -0.020843 0.066471 -0.014636 0.015194 0.103587 -0.031218 0.034398 -0.023148 -0.031284 -0.062288 -0.025619 -0.071441 0.021445 -0.010775 -0.094094 0.011885 0.017434 0.058231 0.037296 0.040818 0.059371 -0.021681 -0.080223 0.096532 0.089172 -0.003612 -0.075648 0.006587 -0.068827 0.046490 -0.008738 0.063457 0.023548 -0.029374 -0.045962 0.077584 0.058283 0.086174 0.016960 0.022554 -0.023825 -0.067251 0.069635 -0.082684 0.027526 -0.045641 0.090068 0.054752 -0.005889 -0.050945 0.071955 0.128885 0.002892 0.020184 -0.062430 -0.058719
sent_79 0.090580 0.057392 -0.055243 -0.095390 -0.113772 -0.069046 -0.005718 0.138525 -0.086108 -0.006008 0.033155 0.020758 -0.193913 0.011563 0.158401 -0.073654 0.004746 -0.105162 -0.075504 -0.018964 0.075152 0.103322 0.068091 0.024915 0.153137 0.206128 -0.162556 0.033574 0.110764 -0.012603 -0.132959 -0.023976 -0.040050 0.096734 0.055005 0.080631 0.163386 0.033321 0.072450 0.218789 0.029613 -0.032076 0.011273 -0.028319 0.098019 0.084989 0.008073 -0.027668 0.097767 -0.082335 0.110823 -0.138447 0.007075 -0.153705 -0.081634 -0.191139 -0.115932 -0.052692 -0.194970 -0.042957 0.136955 0.070538 0.002369 0.095626 0.184489 -0.072061 -0.108720 0.088414 0.125102 0.029309 -0.179810 0.029386 -0.108440 0.036976 -0.095856 0.018451 0.113701 -0.060689 -0.059465 0.023964 0.166183 0.125616 0.173224 0.066013 -0.100158 -0.169464 0.060881 -0.193527 0.071318 -0.167329 0.101286 -0.032497 -0.039929 -0.106787 0.089399 0.107857 -0.072585 0.000929 -0.065156 0.147405
sent_80 -0.119513 0.137860 -0.081961 -0.023987 -0.063715 -0.010823 -0.038702 -0.010623 -0.120705 -0.029459 -0.099428 -0.116754 -0.059594 0.033205 0.051671 -0.076563 0.171416 0.095388 -0.075325 -0.010797 0.165289 -0.241413 -0.032412 0.025608 0.204229 0.052221 -0.021421 -0.044372 0.209660 -0.035037 -0.109026 -0.042715 -0.003035 0.010993 0.049329 0.074281 0.174514 0.008073 -0.037631 -0.020017 0.042244 0.095494 -0.027911 -0.209453 -0.005106 -0.107628 0.004376 -0.134712 0.120104 -0.093754 0.122544 -0.004213 0.156480 -0.182175 -0.083783 -0.177556 -0.169425 -0.048250 -0.079088 -0.002396 0.039801 -0.047469 0.113344 0.238642 0.065842 0.043530 -0.142144 -0.087760 0.006500 0.134879 -0.193167 -0.082195 0.090268 0.095273 0.067165 0.139386 -0.004612 -0.036642 0.028859 0.001350 -0.011167 0.056407 -0.028287 0.064380 -0.164243 -0.099774 -0.035099 -0.004334 0.023272 -0.020764 0.046253 0.060193 0.148853 0.095290 0.118858 -0.054294 0.116601 0.059955 0.049413 0.034069
sent_81 0.053855 0.195015 -0.105708 -0.036231 -0.135278 0.020907 0.019691 0.110540 -0.017130 -0.046798 0.049437 -0.022344 -0.130708 0.059956 0.184129 -0.087307 -0.004480 -0.097506 0.063009 -0.021601 -0.027233 -0.042736 -0.065992 -0.077383 0.114592 -0.007413 -0.047982 0.064686 -0.009902 -0.022606 -0.135806 0.087880 -0.037319 -0.046675 0.112323 -0.056514 0.027684 -0.017342 -0.107116 0.155075 0.064644 0.022055 0.016925 -0.047755 -0.174179 0.057741 0.032774 0.036861 0.159826 -0.000878 0.038956 -0.098975 0.059389 -0.193398 0.054337 -0.141331 -0.007493 -0.058993 -0.057810 -0.065071 0.003154 0.082437 -0.014330 0.071642 -0.055824 0.075315 -0.047786 0.066426 0.068417 -0.039953 -0.071139 -0.069334 -0.124158 0.020625 -0.005378 0.061965 0.057790 0.034150 0.003784 -0.031989 0.034909 0.105061 -0.044398 0.006880 -0.036257 -0.049017 0.005893 0.102196 -0.111575 -0.190612 0.087998 -0.071892 0.057742 -0.053518 0.014342 -0.006134 0.022151 0.122164 -0.065439 -0.237968
sent_82 0.064177 0.282186 -0.183953 -0.024215 -0.078142 -0.062186 0.059541 0.136173 -0.036153 -0.032042 0.093742 -0.033324 -0.027577 0.032538 0.195245 -0.081389 0.060825 -0.099644 0.065572 -0.024937 -0.016350 -0.002881 -0.025949 -0.008943 0.157980 -0.035547 0.037103 -0.030083 0.017576 0.001523 -0.191514 0.066217 0.042475 -0.075416 0.169850 -0.091609 0.034531 -0.003828 -0.073769 0.115530 0.039003 0.016531 -0.002557 -0.008651 -0.179809 0.049130 -0.007684 -0.110618 0.186987 0.053694 -0.017481 -0.116291 0.014238 -0.221391 0.013607 -0.196574 -0.136600 -0.024515 -0.050896 -0.015008 0.033392 0.063733 -0.011944 0.105103 -0.044247 0.046646 -0.042286 0.011238 0.121620 -0.021899 -0.139346 -0.017253 -0.070770 -0.007222 0.007152 0.104975 0.018787 0.090644 -0.018996 -0.032505 0.047459 0.140898 -0.047741 -0.007689 -0.095627 -0.055562 0.046005 0.068812 -0.008696 -0.126446 0.160566 -0.040417 0.079947 -0.048895 -0.002156 0.034135 0.078437 0.099761 -0.029773 -0.270464
sent_83 0.013254 0.013291 0.137776 0.043074 -0.100404 -0.114613 -0.136121 -0.038559 -0.077608 0.161106 -0.050836 -0.143405 -0.015212 -0.103696 0.168454 -0.112235 0.015692 -0.054551 -0.095055 0.121218 0.029658 0.045129 0.166213 -0.022356 0.093909 0.038595 -0.117372 0.075896 0.100671 -0.070383 -0.077518 -0.081830 -0.067753 -0.024339 -0.054912 0.058247 0.054436 0.054603 0.020380 0.111896 0.014155 -0.020259 -0.038164 -0.108269 0.053961 -0.029717 -0.045040 -0.068817 -0.138411 -0.005499 -0.089617 0.023890 0.065996 -0.067264 -0.053470 0.006013 0.001700 -0.087945 0.134014 -0.025886 -0.043456 0.052331 0.051833 -0.029899 -0.016652 0.097687 0.014986 0.016401 0.230603 0.098792 -0.050155 0.024372 0.124605 -0.076247 0.038962 0.074012 -0.070198 0.041150 0.079336 -0.103471 0.033038 -0.035800 -0.064972 0.100016 -0.123176 -0.070328 -0.044879 -0.017576 0.173731 0.007789 -0.067901 0.072291 0.071191 -0.061144 0.025793 -0.004970 -0.030449 0.005719 -0.128654 -0.009929
sent_84 -0.202748 -0.029306 0.021973 -0.071479 -0.093204 -0.023677 -0.052725 -0.026923 -0.113981 0.079699 -0.075030 0.033417 -0.072566 -0.039190 0.005863 0.033345 0.121818 0.227209 -0.083784 0.022833 0.142040 -0.191747 -0.007758 0.135985 0.128466 0.249293 -0.026340 0.009704 0.041887 -0.080372 -0.122082 0.039004 -0.112897 0.126181 -0.050220 0.147113 0.026490 0.053176 -0.003244 -0.062625 -0.010279 0.036814 0.038365 -0.195948 0.037392 -0.019559 -0.038363 -0.031837 0.053224 -0.193215 0.129793 0.026651 0.037956 -0.057444 0.092413 -0.197862 -0.064058 -0.044779 0.105290 0.038333 0.028704 0.103083 0.100997 0.182829 0.093596 0.075466 -0.140669 -0.040059 -0.155468 0.123942 -0.046470 0.003142 0.011654 0.112565 0.053739 0.059722 0.017382 -0.156642 0.030535 -0.071328 -0.026265 -0.010172 0.016114 0.089089 -0.203115 -0.013109 -0.005025 -0.056485 0.075345 -0.010774 0.044956 0.060428 0.198142 -0.015495 0.084339 0.043080 0.063182 0.120078 0.030391 0.011641
sent_85 -0.031479 0.098521 0.029119 -0.053581 -0.045112 -0.120040 -0.006471 -0.008056 -0.019543 0.007547 0.027737 -0.039026 -0.013461 -0.020187 0.016012 -0.024225 0.000752 -0.000759 -0.135375 0.096092 0.114320 -0.078583 -0.024663 -0.029248 0.136358 0.072080 0.002832 -0.046603 0.161731 -0.043094 -0.187019 0.021961 -0.024001 -0.111656 0.062891 0.096869 0.120673 0.057111 -0.095497 0.027043 0.055068 -0.010671 0.066861 -0.158762 -0.056850 -0.000069 0.004074 -0.105694 0.139794 -0.076836 0.046524 -0.063879 0.038326 -0.136285 -0.066388 -0.135176 -0.040528 0.007277 0.008028 0.042975 -0.028870 0.052793 -0.004054 0.084928 0.079197 0.002469 -0.036555 -0.009603 0.088370 0.068693 -0.005467 -0.029710 0.047973 0.055385 -0.022271 0.095619 -0.032078 -0.000785 0.005011 0.036445 0.046278 0.034062 -0.044775 0.057468 -0.088877 -0.004097 0.020978 -0.006389 0.097241 -0.057415 0.078917 0.087148 0.096906 -0.031651 0.064923 0.127125 0.075713 0.079944 0.013864 -0.079918
sent_86 -0.156397 0.081993 -0.018606 -0.125208 -0.082772 -0.027638 -0.082903 -0.037341 -0.234056 0.035058 -0.066129 0.054683 -0.112080 -0.067587 0.107483 -0.008722 0.060474 0.145292 -0.109440 0.101079 0.144901 -0.194430 -0.052557 0.147142 0.224318 0.249745 -0.054023 -0.084508 0.110211 -0.115869 -0.250760 0.024745 -0.020652 0.171514 0.004187 0.131372 0.151872 0.080678 0.032767 0.016041 -0.016832 0.026389 -0.017192 -0.154436 0.054504 0.027461 -0.058657 -0.066458 0.090122 -0.187791 0.128661 -0.105447 0.113949 -0.083477 0.014845 -0.113620 -0.120034 -0.030236 0.068552 -0.097856 0.040988 0.083135 0.121868 0.184928 0.068238 0.110770 -0.102121 -0.028580 -0.072102 0.127077 -0.126796 0.044591 -0.002601 0.058203 0.078236 0.077551 0.081445 -0.148351 0.064392 -0.077451 0.025562 0.034211 0.073469 0.112699 -0.262288 -0.063028 -0.054111 -0.105015 0.085165 -0.078136 -0.005622 0.019709 0.144152 -0.011508 0.075801 -0.055735 0.024149 0.159911 -0.016789 0.045343
sent_87 -0.038585 -0.057113 0.062708 -0.209330 -0.034243 -0.204048 -0.037347 -0.080626 -0.004374 -0.012500 0.057030 0.015131 -0.022415 -0.125897 0.043102 -0.033137 -0.081205 -0.042503 -0.162655 0.085216 0.035725 -0.077113 0.031083 -0.037157 0.018515 0.148927 0.018460 0.019285 0.098981 0.000345 -0.127374 0.021990 -0.068417 -0.108945 -0.010789 -0.205708 0.055073 0.207961 0.025539 0.017196 0.111381 0.068884 0.002523 -0.186200 -0.021558 0.086874 -0.097991 0.127628 0.112963 0.041296 0.029535 -0.078705 0.053908 -0.120518 0.034892 -0.035779 0.006222 -0.085127 0.039185 0.019978 0.010296 0.133358 -0.053520 0.045028 -0.025272 -0.022450 0.030499 0.006434 0.112315 -0.025444 0.098874 0.083565 -0.066498 0.069583 0.017816 -0.009649 0.107549 -0.136763 0.017603 -0.078230 0.157874 0.054050 -0.042621 0.119072 -0.049928 -0.087845 -0.011089 -0.076107 -0.050732 -0.200286 -0.012869 -0.022663 0.146908 -0.136446 0.000096 0.078265 -0.037291 0.166319 0.093798 -0.014606
sent_88 -0.022677 -0.015510 -0.216069 -0.196657 -0.061521 -0.272923 0.139143 0.065276 -0.014185 -0.005544 0.121766 -0.022992 -0.081986 -0.058582 0.135213 -0.143109 0.082149 -0.216726 -0.074074 -0.059124 0.092116 -0.028835 0.000049 -0.105676 0.079269 0.112212 0.031128 -0.123696 0.253565 0.039536 -0.323280 0.024479 -0.105616 -0.163530 0.008074 -0.314445 0.103589 0.120283 -0.197307 0.163244 0.189297 0.101629 -0.142387 -0.330093 -0.046009 -0.070167 -0.099340 0.126701 0.186068 -0.052635 0.093939 -0.031081 -0.129699 -0.265653 -0.118862 -0.026844 -0.270716 -0.182838 0.048493 0.069342 0.050583 0.109747 -0.056155 0.090524 -0.029825 -0.011206 0.062427 -0.025750 0.199922 0.059991 -0.028023 -0.063102 -0.027431 0.042721 0.275996 0.298279 0.149809 -0.345308 0.052929 -0.103971 0.087464 0.093898 0.006766 0.023511 -0.140271 -0.197309 -0.013857 -0.221282 0.147035 -0.168915 0.098203 -0.052788 0.211640 -0.113821 0.158036 0.110349 0.016256 0.284211 0.177521 0.088477
sent_89 0.002020 0.066985 0.082926 -0.040077 -0.064580 -0.135906 0.067489 -0.049457 -0.071263 0.010198 0.055855 0.048886 -0.029529 -0.019798 0.148006 -0.025887 -0.121388 -0.042073 -0.057070 0.104235 -0.005566 -0.021678 -0.020926 -0.012056 0.137448 0.129368 0.021392 0.002346 -0.041746 -0.024740 -0.159193 0.117894 -0.009345 -0.044469 0.042115 0.015360 -0.000986 -0.060042 -0.065697 0.075706 0.035442 -0.000621 0.027400 -0.067663 -0.008601 0.122566 -0.005606 -0.012141 0.094816 -0.088712 0.016514 -0.121108 0.140082 -0.111212 0.078969 -0.084694 -0.057152 -0.056662 0.007330 -0.030613 0.013544 0.063099 0.002953 0.051710 -0.008142 0.123343 0.032978 0.062639 0.008829 -0.035743 -0.059229 -0.001844 -0.087150 0.011779 0.026521 0.028513 0.075682 0.024244 0.034977 0.037488 0.020837 0.013968 0.014566 0.002673 -0.009818 0.009270 0.044043 -0.060444 -0.075156 -0.117612 0.026078 -0.006091 0.087321 -0.011847 0.027109 -0.031497 0.097707 0.132709 -0.008847 -0.116204
sent_90 0.024750 0.023217 0.000706 -0.210841 -0.054884 -0.043107 -0.069252 0.081237 -0.116515 -0.056920 0.080101 0.060800 -0.261330 -0.002612 0.175765 -0.095029 -0.094477 -0.107782 -0.155954 0.038146 0.211537 -0.140164 -0.024983 -0.159563 0.092881 0.271280 -0.215615 0.093523 0.216921 -0.025830 -0.152772 0.005418 -0.120809 -0.023408 -0.048307 -0.088948 0.118363 0.186994 -0.045901 0.139136 0.126417 0.138951 -0.011703 -0.208963 0.155788 0.029255 0.007516 -0.001444 0.051476 -0.034019 0.172620 -0.031576 0.033975 -0.192524 -0.046820 -0.232431 -0.113948 -0.155977 -0.012240 0.035317 0.121832 0.117258 -0.008474 0.109458 0.267054 -0.059364 -0.107847 0.060876 0.066431 0.136307 -0.008816 -0.042226 -0.085986 0.056162 0.032825 0.030533 0.129398 -0.146695 -0.028470 -0.105007 0.200330 -0.002168 -0.004781 0.193733 -0.126458 -0.123298 -0.038730 -0.207985 0.056600 -0.201103 -0.009276 -0.051326 0.131303 -0.083846 0.119769 0.140540 -0.031675 0.105818 0.128639 0.201552
sent_91 -0.236453 -0.253921 0.027521 -0.190344 -0.353941 -0.159446 -0.173178 0.060642 0.062463 -0.075537 -0.180602 -0.132018 -0.203039 -0.116369 0.063096 -0.162583 -0.010923 -0.039114 -0.153874 0.003088 0.135011 -0.238514 0.101381 0.029066 0.048549 0.220677 -0.103614 0.109033 0.083717 -0.007246 -0.115089 0.024259 -0.307593 -0.033253 0.020242 -0.113265 0.062240 0.365717 -0.011274 0.013864 0.347765 0.011629 0.089471 -0.341426 -0.028192 -0.000345 -0.102512 0.098653 0.160605 -0.009707 0.063687 -0.031766 -0.163925 -0.181541 0.124941 -0.236635 -0.020906 -0.024041 0.063922 0.135723 -0.098866 0.227997 0.041376 0.068821 0.062645 -0.018540 -0.105403 -0.027367 0.057618 0.234324 0.190005 0.056619 0.003150 -0.046115 0.054887 0.118161 -0.031635 -0.273435 0.098620 -0.137487 0.022567 -0.056174 -0.222316 -0.000595 -0.082038 -0.110915 -0.067870 0.044440 0.048233 -0.212487 0.099786 -0.026823 0.191169 -0.131594 0.123035 0.127496 0.013538 0.129490 0.013021 0.023842
sent_92 -0.007073 0.078850 -0.057179 -0.164946 -0.062925 -0.118603 -0.095757 -0.051038 -0.118698 0.005612 0.068825 0.026993 -0.128445 -0.176627 0.089308 -0.083056 0.094071 -0.107659 -0.119222 0.028198 0.138420 -0.168273 0.038715 -0.038011 0.055438 0.125783 -0.071815 -0.034099 0.197384 -0.082433 -0.210462 -0.009464 -0.042044 -0.028264 0.041914 -0.158329 0.051510 0.256105 0.008070 0.132285 0.099510 0.131228 0.012527 -0.240328 -0.023751 0.004454 -0.064303 0.099562 0.095599 0.072186 -0.010930 0.042812 -0.059183 -0.235088 -0.098349 -0.106352 -0.084544 -0.039539 0.161063 -0.005111 0.028811 0.076539 0.015785 0.033712 0.072940 -0.044447 -0.045141 -0.044797 0.104763 0.049059 0.079736 0.085156 0.024103 -0.022431 0.168076 0.077300 0.072165 -0.164544 -0.014449 -0.120537 0.179355 0.073851 -0.085551 0.195792 -0.189133 -0.155211 -0.099165 -0.060866 0.096704 -0.118536 0.003623 -0.023779 0.167566 -0.152079 0.062343 0.186993 -0.002386 0.179119 0.088791 0.072044
sent_93 -0.235865 -0.135649 -0.044822 -0.113197 -0.089386 -0.020038 -0.091650 0.063017 -0.108422 0.033261 -0.167713 -0.084500 -0.119116 -0.194690 0.142546 -0.023057 0.150684 0.071150 -0.025685 0.008670 0.181303 -0.256375 -0.040049 0.033401 0.002366 0.208301 -0.112300 -0.021135 0.058321 0.017599 -0.126403 0.024379 -0.151377 0.028731 -0.030793 -0.094054 -0.010192 0.176825 -0.007286 0.096265 0.101792 0.093567 0.003120 -0.268604 0.002312 0.016736 -0.168074 0.049864 0.147635 -0.172356 0.075721 0.034431 -0.112955 -0.124078 0.165014 -0.030416 -0.088353 -0.029923 0.227599 0.002055 0.044404 0.140196 0.029834 0.072769 -0.029337 0.153005 -0.080858 -0.095942 -0.195647 0.122664 0.075619 -0.002505 0.131606 0.001082 0.075234 0.145767 0.014230 -0.305012 0.123712 -0.180622 -0.160914 -0.113882 -0.033807 -0.008563 -0.178028 -0.074658 -0.103596 -0.042544 0.087022 -0.103715 0.004985 0.012626 0.272848 -0.118130 0.073674 -0.068592 -0.158345 0.191960 0.020278 0.158643
sent_94 -0.039062 0.026042 0.065098 -0.051511 -0.026194 -0.078473 -0.035692 -0.035529 -0.017936 -0.042160 -0.010658 -0.014040 -0.006633 -0.002513 0.054951 -0.081842 -0.039841 0.032273 -0.064679 0.049377 0.019714 0.003183 0.042412 -0.002446 0.120503 0.046840 -0.021631 0.009811 0.005200 -0.006756 -0.065320 -0.014747 -0.031878 -0.035724 -0.026741 0.036987 0.026119 0.001449 0.026938 0.023512 -0.002027 -0.100094 0.051987 -0.076310 -0.029280 0.089521 -0.013901 0.007279 0.037842 -0.006474 -0.042464 -0.080218 0.080953 -0.058132 -0.035579 -0.046978 0.018191 -0.048061 0.000579 0.040425 -0.006235 0.062919 -0.004276 0.017090 -0.025906 0.028821 0.003936 0.024733 0.038239 -0.019213 -0.007478 0.043516 -0.006879 -0.013227 -0.024587 0.036121 0.025828 0.008173 -0.010644 -0.016613 0.073901 -0.019257 -0.005174 0.092874 -0.031667 -0.044956 0.018854 -0.023705 -0.038669 0.016171 0.038840 0.013525 0.042554 -0.074522 0.035631 0.030262 0.047560 0.042199 -0.060697 -0.082477
sent_95 -0.117438 -0.026941 0.016645 -0.076269 -0.213021 -0.149529 -0.005905 -0.095833 -0.015502 0.012121 0.000190 0.046997 -0.086801 -0.021662 -0.035315 0.063870 0.046372 0.158967 -0.115242 0.017297 0.254954 -0.239455 0.074229 0.166255 0.117931 0.190676 -0.049837 0.023929 0.094177 -0.062763 -0.204219 0.014346 -0.189109 -0.019829 0.022722 0.231101 0.044447 0.122326 -0.022066 -0.037554 0.010199 0.015627 0.030671 -0.225878 -0.056473 0.068874 -0.088109 0.015622 0.116747 -0.143421 0.045333 0.001266 0.030882 -0.086424 0.100399 -0.152150 0.012187 0.001461 0.035582 -0.032016 -0.028958 0.073099 0.093258 0.136006 0.105717 0.030459 -0.187061 -0.033777 -0.028586 0.086987 -0.078964 0.004004 -0.017753 0.086224 0.068091 0.089792 0.108891 -0.146731 -0.006361 0.055723 -0.054231 0.048866 -0.113101 0.068841 -0.163131 -0.052755 0.058097 -0.032756 0.049193 -0.099887 0.105856 0.102198 0.146373 -0.063822 0.130533 0.116658 0.173000 0.219374 0.005241 0.002602
sent_96 -0.114482 -0.110259 0.151427 -0.222309 -0.149296 -0.296223 0.087689 -0.072417 0.034883 -0.048805 0.128001 -0.019930 -0.097776 -0.046847 0.071009 0.037047 -0.124671 -0.036226 -0.227408 -0.054678 0.169359 -0.234675 0.012035 -0.000843 0.022048 0.245698 -0.057917 0.067917 0.110586 0.029875 -0.167707 0.144357 -0.235714 -0.255733 0.017926 -0.066642 0.001063 0.167583 -0.153808 0.163133 0.159866 0.173577 0.065552 -0.453014 -0.172705 0.030188 -0.029208 0.004159 0.176792 -0.183634 0.206376 -0.121949 -0.041239 -0.295207 0.151370 -0.229109 0.002541 -0.086359 0.110701 0.002408 -0.021081 0.126800 -0.049841 0.110984 0.014687 0.126391 0.003234 0.089141 -0.023484 0.022643 0.078967 -0.013085 -0.001028 0.156060 0.004922 0.121377 -0.024963 -0.266021 0.014350 -0.044924 -0.045768 0.062922 0.001945 0.070784 -0.026431 -0.108540 0.068603 -0.096224 -0.002259 -0.173782 0.015612 0.027830 0.362708 -0.059653 0.062670 0.158153 0.165064 0.255113 0.108949 0.019282
sent_97 -0.135976 0.004593 -0.046536 -0.173910 -0.146129 -0.277863 -0.045338 -0.009129 -0.073469 -0.165628 0.033408 -0.102639 -0.024965 0.032126 0.072449 -0.024144 0.067387 0.025644 -0.187454 -0.151575 0.173550 -0.203705 0.083258 0.057457 0.129651 0.169671 -0.027141 0.036136 0.111571 0.073335 -0.030446 0.029765 -0.011758 -0.002945 -0.069136 -0.070795 -0.027296 0.148428 -0.078192 0.067834 0.104900 0.110396 -0.025003 -0.281300 0.004003 -0.062037 -0.094598 -0.092610 0.029460 -0.022593 0.176893 0.034092 0.055691 -0.192861 0.056145 -0.219504 -0.083850 -0.084481 -0.122732 -0.012026 0.059233 -0.097781 0.074442 0.194652 0.120824 -0.051805 -0.138944 0.145579 -0.034697 0.123881 -0.074740 0.009284 -0.065797 0.052729 0.050597 -0.064362 0.022366 -0.147352 0.010092 -0.038771 -0.015708 0.019540 -0.100646 0.072113 -0.060904 -0.037961 0.067085 -0.097456 -0.052960 -0.108498 0.011324 -0.055991 0.121583 0.010806 0.187591 0.066795 0.188221 0.211357 0.080599 0.178011
sent_98 -0.053785 0.042092 -0.094734 -0.221433 -0.195350 -0.075612 -0.140414 0.122462 -0.152939 -0.100665 0.142025 0.056805 -0.085022 -0.129483 0.242829 -0.093990 0.129515 0.020908 -0.144422 0.034632 0.060250 -0.086005 0.043259 -0.016997 0.093806 0.185336 -0.081806 -0.020338 0.034252 -0.117010 -0.183370 0.069788 0.089060 0.043968 -0.023842 -0.313277 -0.036818 0.283439 -0.029877 0.243737 0.113782 0.128456 -0.029136 -0.076378 -0.133388 0.040947 0.046283 0.261067 0.227598 0.043890 -0.002508 -0.007203 -0.112897 -0.306088 0.050455 -0.207749 -0.042875 -0.089280 0.132904 -0.087941 0.123083 0.166136 -0.035467 0.078149 -0.017789 -0.088994 -0.010103 0.086021 0.025767 0.001198 0.154237 0.128445 -0.108585 0.070174 0.083510 0.010065 0.026729 -0.096419 -0.099609 -0.124538 0.220488 0.127344 0.004578 0.248356 -0.164637 -0.182254 0.046256 -0.089256 0.034016 -0.191882 -0.035170 -0.112831 0.226806 -0.203313 0.076862 0.169533 -0.073400 0.245439 -0.004402 -0.031144
sent_99 -0.012862 0.036962 -0.066790 -0.150809 -0.285480 -0.130839 -0.019878 -0.050184 -0.080381 -0.033642 0.214271 0.122990 -0.196345 -0.025746 0.245489 -0.027735 0.025946 0.047494 -0.023479 0.040176 0.230745 -0.211966 0.038296 0.129340 0.017103 0.180198 -0.056827 0.015802 0.003257 -0.095407 -0.205833 0.064510 -0.036541 -0.012315 0.034247 -0.264416 -0.075087 0.221555 -0.086262 0.129218 0.122954 0.156967 -0.096700 -0.160364 -0.083438 0.094186 -0.055876 0.239907 0.181811 -0.042703 -0.068629 0.058648 -0.029958 -0.136622 0.205176 -0.141751 -0.161310 -0.167760 0.126076 -0.126485 0.131722 0.100964 0.075362 0.068021 0.036354 0.020304 -0.084081 -0.002751 -0.018485 -0.028286 -0.043878 0.068527 -0.189602 0.124780 0.256800 0.090333 0.189233 -0.212402 -0.086221 -0.115074 0.066711 0.129493 -0.182232 0.111657 -0.149564 -0.201519 0.063653 -0.190808 0.035393 -0.288294 -0.016016 -0.071295 0.189725 -0.152843 0.112642 0.075672 0.117597 0.375111 0.088595 -0.002097
sent_100 -0.029894 0.198130 -0.083738 -0.047807 -0.062961 -0.182716 0.071204 -0.047570 -0.031236 -0.030434 0.064782 -0.106069 -0.027118 -0.106891 0.053079 -0.079041 0.158124 0.012347 -0.048726 -0.042514 0.145247 -0.132371 0.008575 0.051936 0.190880 0.070168 -0.024955 -0.143333 0.136844 -0.035254 -0.274328 0.026424 -0.090817 -0.125269 0.125418 0.118129 0.137320 0.019787 -0.165950 0.100517 0.013927 0.030410 0.088268 -0.256690 -0.228626 0.046425 -0.062988 -0.074852 0.131627 -0.072133 -0.014142 -0.081314 0.003433 -0.260996 -0.110794 -0.107562 -0.157294 0.000283 0.104674 0.037441 -0.036400 0.036130 0.076972 0.061043 -0.109330 0.046026 -0.087122 -0.050240 0.086723 -0.009163 -0.066719 0.036072 0.075276 0.045302 0.145327 0.351648 0.044622 -0.146595 0.040095 -0.106232 -0.037120 0.075742 -0.066367 -0.020258 -0.176525 -0.070321 0.024278 0.011265 0.025700 -0.013603 0.121404 0.054686 0.214569 -0.105008 0.109353 0.051396 0.099528 0.264038 -0.027691 -0.096649
sent_101 -0.070725 0.037604 -0.006595 -0.140483 -0.209516 -0.143601 -0.034159 0.084448 -0.060768 0.063393 0.097327 0.120560 -0.024295 -0.073195 0.181247 0.080315 0.083936 -0.042388 -0.059223 -0.073083 0.143348 -0.111636 0.050197 -0.021280 -0.066727 0.116368 -0.048500 0.063441 -0.019294 -0.101037 -0.086401 0.066663 0.001762 -0.033095 0.005356 -0.182875 -0.061966 0.161185 -0.065089 0.079010 0.110910 0.137284 -0.068868 -0.190522 -0.033763 -0.009826 -0.107576 0.103156 0.054051 0.119261 0.042921 0.098163 -0.040393 -0.207114 0.057962 0.018717 -0.123069 -0.091836 0.153329 0.001844 0.070603 0.067544 -0.010306 0.079421 0.020795 -0.032358 -0.044034 -0.031353 -0.045083 -0.064629 0.038314 0.057232 -0.161426 0.088387 0.171737 0.021179 0.175935 -0.210979 -0.034568 -0.126277 0.083032 0.097466 -0.079640 0.121473 -0.107600 -0.055028 -0.045776 -0.040106 -0.020985 -0.156542 -0.008463 -0.046203 0.143136 -0.141952 0.128600 0.107952 0.015137 0.263016 0.071838 -0.004226
sent_102 -0.115054 -0.059615 0.089689 -0.182538 -0.033626 -0.111659 -0.094042 0.017234 0.050210 0.001754 0.027539 -0.068252 -0.164502 -0.009870 0.054820 -0.136220 0.020715 -0.006220 -0.144643 0.027244 0.011936 -0.087499 0.013927 0.003840 0.120558 0.189665 -0.036664 0.089967 0.085410 0.026033 -0.088810 -0.024376 -0.198381 -0.039491 -0.010664 -0.171852 0.043287 0.108600 -0.020010 0.080560 0.103902 0.031552 0.027702 -0.230334 0.002237 0.024498 0.035273 0.107651 0.208291 -0.043308 0.077209 -0.142292 -0.075652 -0.180056 -0.003268 -0.195311 -0.117668 -0.103288 0.027950 0.107977 0.024072 0.094361 0.032673 0.119328 0.064413 -0.062368 -0.003807 -0.002081 -0.014542 0.079624 0.024593 -0.035229 -0.115248 0.057114 0.000417 0.087363 0.042710 -0.157358 0.013569 -0.103408 0.172727 -0.028594 0.104596 0.114752 -0.076657 -0.095713 -0.001219 -0.163868 -0.029010 -0.057748 0.008703 -0.034404 0.167350 -0.115985 0.082076 0.157093 0.036540 0.069542 0.113309 -0.012348
sent_103 -0.113762 -0.097453 0.018671 -0.129097 -0.142072 -0.051911 -0.012750 -0.072683 0.055207 -0.045405 -0.041777 0.043307 -0.228521 0.120559 0.018214 0.060170 -0.027141 0.034120 -0.189830 -0.018925 0.174524 -0.071150 0.045938 0.104950 0.149894 0.265409 -0.044085 0.115705 0.118505 -0.070798 -0.083443 -0.016566 -0.212767 -0.006657 0.100316 0.164225 0.075331 0.065544 -0.001631 -0.012180 0.117192 -0.034395 0.071028 -0.240538 0.042396 0.011935 -0.075034 -0.081441 0.148971 -0.075885 0.189890 -0.007952 0.056392 -0.077533 0.032582 -0.131386 0.065966 -0.083343 -0.134633 0.037417 -0.011774 0.055692 0.012755 0.172079 0.157405 0.050348 -0.164295 0.057175 0.059747 0.083758 -0.101326 -0.092939 -0.097485 0.156364 -0.046142 0.097156 0.002725 -0.085388 -0.007684 0.156024 0.079620 0.083519 0.016175 0.094479 -0.065843 -0.034968 -0.004606 -0.069709 -0.019079 -0.126411 0.011025 0.127065 0.073469 0.016420 0.064765 0.102967 0.110905 0.028085 0.105597 -0.014574
